<?xml version="1.0"?>
<opencv_storage>
<cascade>
  <stageType>BOOST</stageType>
  <featureType>HAAR</featureType>
  <height>70</height>
  <width>100</width>
  <stageParams>
    <boostType>GAB</boostType>
    <minHitRate>9.9900001287460327e-01</minHitRate>
    <maxFalseAlarm>5.0000000000000000e-01</maxFalseAlarm>
    <weightTrimRate>9.4999999999999996e-01</weightTrimRate>
    <maxDepth>1</maxDepth>
    <maxWeakCount>100</maxWeakCount></stageParams>
  <featureParams>
    <maxCatCount>0</maxCatCount>
    <featSize>1</featSize>
    <mode>ALL</mode></featureParams>
  <stageNum>20</stageNum>
  <stages>
    <!-- stage 0 -->
    <_>
      <maxWeakCount>13</maxWeakCount>
      <stageThreshold>-1.0649046897888184e+00</stageThreshold>
      <weakClassifiers>
        <_>
          <internalNodes>
            0 -1 194 5.1683802157640457e-03</internalNodes>
          <leafValues>
            -2.4691358208656311e-02 7.9329609870910645e-01</leafValues></_>
        <_>
          <internalNodes>
            0 -1 637 1.7708230763673782e-02</internalNodes>
          <leafValues>
            -1.1156164854764938e-01 8.6805558204650879e-01</leafValues></_>
        <_>
          <internalNodes>
            0 -1 406 -1.0510269552469254e-02</internalNodes>
          <leafValues>
            6.9264787435531616e-01 -2.1177914738655090e-01</leafValues></_>
        <_>
          <internalNodes>
            0 -1 345 -9.7772367298603058e-03</internalNodes>
          <leafValues>
            6.2184917926788330e-01 -3.1179878115653992e-01</leafValues></_>
        <_>
          <internalNodes>
            0 -1 346 -5.5446838960051537e-03</internalNodes>
          <leafValues>
            5.9630131721496582e-01 -2.1012085676193237e-01</leafValues></_>
        <_>
          <internalNodes>
            0 -1 37 -1.0215518996119499e-02</internalNodes>
          <leafValues>
            6.1119824647903442e-01 -2.1400180459022522e-01</leafValues></_>
        <_>
          <internalNodes>
            0 -1 443 -1.4268211089074612e-03</internalNodes>
          <leafValues>
            6.2630444765090942e-01 -2.4311408400535583e-01</leafValues></_>
        <_>
          <internalNodes>
            0 -1 5 -2.6987105607986450e-01</internalNodes>
          <leafValues>
            -6.1520946025848389e-01 2.4288609623908997e-01</leafValues></_>
        <_>
          <internalNodes>
            0 -1 267 -1.5433602966368198e-03</internalNodes>
          <leafValues>
            7.8199154138565063e-01 -1.8484105169773102e-01</leafValues></_>
        <_>
          <internalNodes>
            0 -1 180 2.0526045560836792e-01</internalNodes>
          <leafValues>
            1.6079914569854736e-01 -9.2893373966217041e-01</leafValues></_>
        <_>
          <internalNodes>
            0 -1 572 1.0177908465266228e-02</internalNodes>
          <leafValues>
            -2.0264476537704468e-01 7.5265169143676758e-01</leafValues></_>
        <_>
          <internalNodes>
            0 -1 294 -7.3235146701335907e-03</internalNodes>
          <leafValues>
            7.7411645650863647e-01 -1.4066120982170105e-01</leafValues></_>
        <_>
          <internalNodes>
            0 -1 162 3.8478514179587364e-03</internalNodes>
          <leafValues>
            -1.6682982444763184e-01 6.7711251974105835e-01</leafValues></_></weakClassifiers></_>
    <!-- stage 1 -->
    <_>
      <maxWeakCount>19</maxWeakCount>
      <stageThreshold>-7.4548637866973877e-01</stageThreshold>
      <weakClassifiers>
        <_>
          <internalNodes>
            0 -1 71 -5.6494828313589096e-03</internalNodes>
          <leafValues>
            7.9464840888977051e-01 1.2386707216501236e-01</leafValues></_>
        <_>
          <internalNodes>
            0 -1 326 2.7103655040264130e-02</internalNodes>
          <leafValues>
            -1.9781447947025299e-01 6.2977039813995361e-01</leafValues></_>
        <_>
          <internalNodes>
            0 -1 651 -1.2185686267912388e-02</internalNodes>
          <leafValues>
            7.1617919206619263e-01 -1.4751324057579041e-01</leafValues></_>
        <_>
          <internalNodes>
            0 -1 372 -1.1427484452724457e-02</internalNodes>
          <leafValues>
            6.2706458568572998e-01 -1.7955818772315979e-01</leafValues></_>
        <_>
          <internalNodes>
            0 -1 80 1.6429401934146881e-02</internalNodes>
          <leafValues>
            -1.5455773472785950e-01 5.6948214769363403e-01</leafValues></_>
        <_>
          <internalNodes>
            0 -1 266 -4.4343210756778717e-03</internalNodes>
          <leafValues>
            7.2386902570724487e-01 -1.5651836991310120e-01</leafValues></_>
        <_>
          <internalNodes>
            0 -1 106 -1.0659801773726940e-02</internalNodes>
          <leafValues>
            7.2483754158020020e-01 -1.1899500340223312e-01</leafValues></_>
        <_>
          <internalNodes>
            0 -1 537 1.6351722180843353e-02</internalNodes>
          <leafValues>
            -1.2651287019252777e-01 7.1305674314498901e-01</leafValues></_>
        <_>
          <internalNodes>
            0 -1 44 1.0195375978946686e-01</internalNodes>
          <leafValues>
            1.4490647614002228e-01 -7.9062795639038086e-01</leafValues></_>
        <_>
          <internalNodes>
            0 -1 463 3.9719166234135628e-03</internalNodes>
          <leafValues>
            -1.6087692975997925e-01 7.1068418025970459e-01</leafValues></_>
        <_>
          <internalNodes>
            0 -1 629 1.5695281326770782e-02</internalNodes>
          <leafValues>
            -8.8233895599842072e-02 8.2359141111373901e-01</leafValues></_>
        <_>
          <internalNodes>
            0 -1 270 4.5702321222051978e-04</internalNodes>
          <leafValues>
            1.4577129483222961e-01 -7.4435776472091675e-01</leafValues></_>
        <_>
          <internalNodes>
            0 -1 327 -2.6024053804576397e-03</internalNodes>
          <leafValues>
            6.5328752994537354e-01 -1.6285698115825653e-01</leafValues></_>
        <_>
          <internalNodes>
            0 -1 248 -3.5893529653549194e-02</internalNodes>
          <leafValues>
            -8.3579069375991821e-01 1.2993642687797546e-01</leafValues></_>
        <_>
          <internalNodes>
            0 -1 192 2.6002038270235062e-02</internalNodes>
          <leafValues>
            -1.3258892297744751e-01 8.2645821571350098e-01</leafValues></_>
        <_>
          <internalNodes>
            0 -1 32 -1.1002503335475922e-02</internalNodes>
          <leafValues>
            7.1035933494567871e-01 -1.0318243503570557e-01</leafValues></_>
        <_>
          <internalNodes>
            0 -1 348 -2.3941860999912024e-03</internalNodes>
          <leafValues>
            8.0665242671966553e-01 -8.8556036353111267e-02</leafValues></_>
        <_>
          <internalNodes>
            0 -1 235 -2.0606297766789794e-05</internalNodes>
          <leafValues>
            -4.9335512518882751e-01 1.9292759895324707e-01</leafValues></_>
        <_>
          <internalNodes>
            0 -1 496 -2.7407384477555752e-03</internalNodes>
          <leafValues>
            4.2657175660133362e-01 -2.2764606773853302e-01</leafValues></_></weakClassifiers></_>
    <!-- stage 2 -->
    <_>
      <maxWeakCount>20</maxWeakCount>
      <stageThreshold>-7.6607167720794678e-01</stageThreshold>
      <weakClassifiers>
        <_>
          <internalNodes>
            0 -1 616 2.1077375859022141e-02</internalNodes>
          <leafValues>
            2.3466257750988007e-01 8.4413582086563110e-01</leafValues></_>
        <_>
          <internalNodes>
            0 -1 50 1.5639947727322578e-02</internalNodes>
          <leafValues>
            -1.1761541664600372e-01 6.6696286201477051e-01</leafValues></_>
        <_>
          <internalNodes>
            0 -1 379 9.9693723022937775e-03</internalNodes>
          <leafValues>
            -1.9408738613128662e-01 5.7684862613677979e-01</leafValues></_>
        <_>
          <internalNodes>
            0 -1 8 -1.0989129543304443e-02</internalNodes>
          <leafValues>
            7.3004639148712158e-01 -1.8146136403083801e-01</leafValues></_>
        <_>
          <internalNodes>
            0 -1 10 3.9519090205430984e-03</internalNodes>
          <leafValues>
            -1.2170065194368362e-01 6.6966855525970459e-01</leafValues></_>
        <_>
          <internalNodes>
            0 -1 153 6.8576359190046787e-03</internalNodes>
          <leafValues>
            -1.5118160843849182e-01 5.4544967412948608e-01</leafValues></_>
        <_>
          <internalNodes>
            0 -1 613 -4.3760336935520172e-02</internalNodes>
          <leafValues>
            6.0121840238571167e-01 -1.2972147762775421e-01</leafValues></_>
        <_>
          <internalNodes>
            0 -1 416 -5.1459213718771935e-03</internalNodes>
          <leafValues>
            6.3632059097290039e-01 -1.1739414185285568e-01</leafValues></_>
        <_>
          <internalNodes>
            0 -1 9 -2.9687653295695782e-04</internalNodes>
          <leafValues>
            -4.6709319949150085e-01 1.8059711158275604e-01</leafValues></_>
        <_>
          <internalNodes>
            0 -1 105 -1.8745854496955872e-02</internalNodes>
          <leafValues>
            4.8206657171249390e-01 -1.7771691083908081e-01</leafValues></_>
        <_>
          <internalNodes>
            0 -1 283 -8.3627011626958847e-03</internalNodes>
          <leafValues>
            8.1611549854278564e-01 -8.3410724997520447e-02</leafValues></_>
        <_>
          <internalNodes>
            0 -1 237 5.5185742676258087e-03</internalNodes>
          <leafValues>
            -1.3246518373489380e-01 5.3957909345626831e-01</leafValues></_>
        <_>
          <internalNodes>
            0 -1 675 5.5576981976628304e-03</internalNodes>
          <leafValues>
            -1.2042726576328278e-01 5.8725702762603760e-01</leafValues></_>
        <_>
          <internalNodes>
            0 -1 432 -3.5432654840406030e-05</internalNodes>
          <leafValues>
            -3.2149139046669006e-01 2.5860127806663513e-01</leafValues></_>
        <_>
          <internalNodes>
            0 -1 115 -2.4139717221260071e-02</internalNodes>
          <leafValues>
            4.6933519840240479e-01 -1.5174485743045807e-01</leafValues></_>
        <_>
          <internalNodes>
            0 -1 479 -4.2515624954830855e-05</internalNodes>
          <leafValues>
            -3.5059827566146851e-01 2.0839580893516541e-01</leafValues></_>
        <_>
          <internalNodes>
            0 -1 563 -2.8122207149863243e-03</internalNodes>
          <leafValues>
            5.5053734779357910e-01 -1.4565105736255646e-01</leafValues></_>
        <_>
          <internalNodes>
            0 -1 63 -2.1076786518096924e-01</internalNodes>
          <leafValues>
            -4.7641503810882568e-01 1.7572744190692902e-01</leafValues></_>
        <_>
          <internalNodes>
            0 -1 489 4.7220109263435006e-04</internalNodes>
          <leafValues>
            1.0534634441137314e-01 -6.9166749715805054e-01</leafValues></_>
        <_>
          <internalNodes>
            0 -1 26 -4.7136442735791206e-03</internalNodes>
          <leafValues>
            6.2332409620285034e-01 -1.4088673889636993e-01</leafValues></_></weakClassifiers></_>
    <!-- stage 3 -->
    <_>
      <maxWeakCount>25</maxWeakCount>
      <stageThreshold>-9.0213370323181152e-01</stageThreshold>
      <weakClassifiers>
        <_>
          <internalNodes>
            0 -1 126 -3.2121337950229645e-02</internalNodes>
          <leafValues>
            7.5536990165710449e-01 1.4502164721488953e-01</leafValues></_>
        <_>
          <internalNodes>
            0 -1 404 -1.4274951070547104e-02</internalNodes>
          <leafValues>
            5.8949619531631470e-01 -1.2401705980300903e-01</leafValues></_>
        <_>
          <internalNodes>
            0 -1 34 -2.5235746055841446e-02</internalNodes>
          <leafValues>
            4.4379472732543945e-01 -2.6728546619415283e-01</leafValues></_>
        <_>
          <internalNodes>
            0 -1 340 -1.4796559698879719e-02</internalNodes>
          <leafValues>
            5.4706376791000366e-01 -1.5576502680778503e-01</leafValues></_>
        <_>
          <internalNodes>
            0 -1 425 -3.5282508470118046e-03</internalNodes>
          <leafValues>
            4.2096811532974243e-01 -2.2245803475379944e-01</leafValues></_>
        <_>
          <internalNodes>
            0 -1 503 1.2695090845227242e-02</internalNodes>
          <leafValues>
            -1.9345729053020477e-01 6.0031682252883911e-01</leafValues></_>
        <_>
          <internalNodes>
            0 -1 202 -2.5767306797206402e-03</internalNodes>
          <leafValues>
            5.2535229921340942e-01 -1.4388173818588257e-01</leafValues></_>
        <_>
          <internalNodes>
            0 -1 199 -1.2077812105417252e-02</internalNodes>
          <leafValues>
            5.7299768924713135e-01 -1.4706999063491821e-01</leafValues></_>
        <_>
          <internalNodes>
            0 -1 681 -1.2189617380499840e-02</internalNodes>
          <leafValues>
            6.7711889743804932e-01 -1.1587752401828766e-01</leafValues></_>
        <_>
          <internalNodes>
            0 -1 64 4.4203922152519226e-03</internalNodes>
          <leafValues>
            -1.6590236127376556e-01 4.6266567707061768e-01</leafValues></_>
        <_>
          <internalNodes>
            0 -1 22 -1.0330207645893097e-02</internalNodes>
          <leafValues>
            4.9355438351631165e-01 -1.5173862874507904e-01</leafValues></_>
        <_>
          <internalNodes>
            0 -1 638 1.5329894609749317e-02</internalNodes>
          <leafValues>
            -1.4013405144214630e-01 4.9657794833183289e-01</leafValues></_>
        <_>
          <internalNodes>
            0 -1 547 1.0516252950765193e-04</internalNodes>
          <leafValues>
            -9.4983465969562531e-02 7.1701633930206299e-01</leafValues></_>
        <_>
          <internalNodes>
            0 -1 286 9.0688071213662624e-04</internalNodes>
          <leafValues>
            1.3729646801948547e-01 -6.0759019851684570e-01</leafValues></_>
        <_>
          <internalNodes>
            0 -1 133 2.4630624055862427e-01</internalNodes>
          <leafValues>
            8.4033980965614319e-02 -7.7510595321655273e-01</leafValues></_>
        <_>
          <internalNodes>
            0 -1 16 -8.6715640500187874e-03</internalNodes>
          <leafValues>
            6.8837529420852661e-01 -1.2517443299293518e-01</leafValues></_>
        <_>
          <internalNodes>
            0 -1 623 1.2747494503855705e-02</internalNodes>
          <leafValues>
            -1.5840873122215271e-01 4.3594545125961304e-01</leafValues></_>
        <_>
          <internalNodes>
            0 -1 282 -1.3918387703597546e-03</internalNodes>
          <leafValues>
            6.1934971809387207e-01 -1.2385947257280350e-01</leafValues></_>
        <_>
          <internalNodes>
            0 -1 593 9.7762551158666611e-03</internalNodes>
          <leafValues>
            -1.0816317051649094e-01 6.0515588521957397e-01</leafValues></_>
        <_>
          <internalNodes>
            0 -1 495 1.3181951828300953e-02</internalNodes>
          <leafValues>
            1.4472272992134094e-01 -6.0948705673217773e-01</leafValues></_>
        <_>
          <internalNodes>
            0 -1 52 3.2052397727966309e-02</internalNodes>
          <leafValues>
            -1.3267534971237183e-01 6.5961879491806030e-01</leafValues></_>
        <_>
          <internalNodes>
            0 -1 272 3.9087627083063126e-03</internalNodes>
          <leafValues>
            -1.1041950434446335e-01 5.9762394428253174e-01</leafValues></_>
        <_>
          <internalNodes>
            0 -1 363 -3.0691886786371469e-04</internalNodes>
          <leafValues>
            5.4834306240081787e-01 -1.3525484502315521e-01</leafValues></_>
        <_>
          <internalNodes>
            0 -1 268 -4.0163042285712436e-05</internalNodes>
          <leafValues>
            -5.0431418418884277e-01 1.6660761833190918e-01</leafValues></_>
        <_>
          <internalNodes>
            0 -1 368 -6.9857295602560043e-03</internalNodes>
          <leafValues>
            6.1997157335281372e-01 -1.3506725430488586e-01</leafValues></_></weakClassifiers></_>
    <!-- stage 4 -->
    <_>
      <maxWeakCount>29</maxWeakCount>
      <stageThreshold>-8.1489354372024536e-01</stageThreshold>
      <weakClassifiers>
        <_>
          <internalNodes>
            0 -1 622 2.1367873996496201e-02</internalNodes>
          <leafValues>
            2.6018807291984558e-01 8.0664652585983276e-01</leafValues></_>
        <_>
          <internalNodes>
            0 -1 35 -2.0042261481285095e-01</internalNodes>
          <leafValues>
            5.0260400772094727e-01 -1.4899888634681702e-01</leafValues></_>
        <_>
          <internalNodes>
            0 -1 228 2.9885638505220413e-02</internalNodes>
          <leafValues>
            -1.2512637674808502e-01 5.3340774774551392e-01</leafValues></_>
        <_>
          <internalNodes>
            0 -1 371 -1.5898618847131729e-02</internalNodes>
          <leafValues>
            4.5174595713615417e-01 -1.7476004362106323e-01</leafValues></_>
        <_>
          <internalNodes>
            0 -1 697 2.3907339200377464e-03</internalNodes>
          <leafValues>
            -1.0464582592248917e-01 7.0830535888671875e-01</leafValues></_>
        <_>
          <internalNodes>
            0 -1 17 1.4104058500379324e-03</internalNodes>
          <leafValues>
            -1.3028448820114136e-01 4.6413955092430115e-01</leafValues></_>
        <_>
          <internalNodes>
            0 -1 464 4.3756037484854460e-05</internalNodes>
          <leafValues>
            1.1246758699417114e-01 -5.5997037887573242e-01</leafValues></_>
        <_>
          <internalNodes>
            0 -1 426 -5.5972947739064693e-03</internalNodes>
          <leafValues>
            5.1148945093154907e-01 -1.3555400073528290e-01</leafValues></_>
        <_>
          <internalNodes>
            0 -1 402 -3.2052650931291282e-04</internalNodes>
          <leafValues>
            -3.6408087611198425e-01 1.9429336488246918e-01</leafValues></_>
        <_>
          <internalNodes>
            0 -1 442 -7.5547713786363602e-03</internalNodes>
          <leafValues>
            5.3763765096664429e-01 -1.3008560240268707e-01</leafValues></_>
        <_>
          <internalNodes>
            0 -1 410 -2.0088618621230125e-03</internalNodes>
          <leafValues>
            8.1499993801116943e-01 -6.9815509021282196e-02</leafValues></_>
        <_>
          <internalNodes>
            0 -1 382 -3.8386278320103884e-03</internalNodes>
          <leafValues>
            5.0630873441696167e-01 -1.2155792862176895e-01</leafValues></_>
        <_>
          <internalNodes>
            0 -1 212 1.6329836100339890e-02</internalNodes>
          <leafValues>
            -1.4531104266643524e-01 4.3817737698554993e-01</leafValues></_>
        <_>
          <internalNodes>
            0 -1 160 -6.5960772335529327e-03</internalNodes>
          <leafValues>
            6.9021004438400269e-01 -8.6116343736648560e-02</leafValues></_>
        <_>
          <internalNodes>
            0 -1 565 -1.3881629565730691e-03</internalNodes>
          <leafValues>
            5.8098340034484863e-01 -1.1037830263376236e-01</leafValues></_>
        <_>
          <internalNodes>
            0 -1 193 -8.8284350931644440e-03</internalNodes>
          <leafValues>
            5.7914727926254272e-01 -1.1450627446174622e-01</leafValues></_>
        <_>
          <internalNodes>
            0 -1 610 -1.8874036613851786e-03</internalNodes>
          <leafValues>
            5.6158715486526489e-01 -1.2157475203275681e-01</leafValues></_>
        <_>
          <internalNodes>
            0 -1 703 -2.4129787925630808e-04</internalNodes>
          <leafValues>
            -5.6356966495513916e-01 1.2992936372756958e-01</leafValues></_>
        <_>
          <internalNodes>
            0 -1 657 4.7515952028334141e-03</internalNodes>
          <leafValues>
            -1.2379299104213715e-01 5.9196203947067261e-01</leafValues></_>
        <_>
          <internalNodes>
            0 -1 359 1.5226254239678383e-02</internalNodes>
          <leafValues>
            1.2467052042484283e-01 -5.6258481740951538e-01</leafValues></_>
        <_>
          <internalNodes>
            0 -1 154 3.6410675384104252e-03</internalNodes>
          <leafValues>
            -9.5454275608062744e-02 7.0687764883041382e-01</leafValues></_>
        <_>
          <internalNodes>
            0 -1 427 8.5535924881696701e-04</internalNodes>
          <leafValues>
            -7.0735827088356018e-02 7.6248157024383545e-01</leafValues></_>
        <_>
          <internalNodes>
            0 -1 631 2.6587566026137210e-05</internalNodes>
          <leafValues>
            1.7310543358325958e-01 -4.1012591123580933e-01</leafValues></_>
        <_>
          <internalNodes>
            0 -1 492 1.8666726537048817e-03</internalNodes>
          <leafValues>
            -1.1396246403455734e-01 6.0338789224624634e-01</leafValues></_>
        <_>
          <internalNodes>
            0 -1 678 1.2103225162718445e-04</internalNodes>
          <leafValues>
            1.8780502676963806e-01 -3.5799324512481689e-01</leafValues></_>
        <_>
          <internalNodes>
            0 -1 385 -3.7753670767415315e-05</internalNodes>
          <leafValues>
            -3.1518325209617615e-01 2.0648151636123657e-01</leafValues></_>
        <_>
          <internalNodes>
            0 -1 156 -6.8799015134572983e-03</internalNodes>
          <leafValues>
            5.2951669692993164e-01 -1.3042968511581421e-01</leafValues></_>
        <_>
          <internalNodes>
            0 -1 522 -2.7013013095711358e-05</internalNodes>
          <leafValues>
            -4.3526592850685120e-01 1.5464235842227936e-01</leafValues></_>
        <_>
          <internalNodes>
            0 -1 396 -4.8778541386127472e-03</internalNodes>
          <leafValues>
            5.7461428642272949e-01 -1.3343392312526703e-01</leafValues></_></weakClassifiers></_>
    <!-- stage 5 -->
    <_>
      <maxWeakCount>33</maxWeakCount>
      <stageThreshold>-8.0936485528945923e-01</stageThreshold>
      <weakClassifiers>
        <_>
          <internalNodes>
            0 -1 628 1.0541436262428761e-02</internalNodes>
          <leafValues>
            2.6506024599075317e-01 7.5938802957534790e-01</leafValues></_>
        <_>
          <internalNodes>
            0 -1 46 1.9829794764518738e-02</internalNodes>
          <leafValues>
            -1.3187691569328308e-01 5.5192840099334717e-01</leafValues></_>
        <_>
          <internalNodes>
            0 -1 394 1.8745982379186898e-04</internalNodes>
          <leafValues>
            -1.1893737316131592e-01 5.7044208049774170e-01</leafValues></_>
        <_>
          <internalNodes>
            0 -1 680 -6.8421489559113979e-03</internalNodes>
          <leafValues>
            6.1103373765945435e-01 -1.4195442199707031e-01</leafValues></_>
        <_>
          <internalNodes>
            0 -1 349 -2.3629362694919109e-03</internalNodes>
          <leafValues>
            6.3481664657592773e-01 -1.2096172571182251e-01</leafValues></_>
        <_>
          <internalNodes>
            0 -1 387 -2.8081946074962616e-03</internalNodes>
          <leafValues>
            5.9340590238571167e-01 -9.7910545766353607e-02</leafValues></_>
        <_>
          <internalNodes>
            0 -1 663 -1.2608664110302925e-02</internalNodes>
          <leafValues>
            4.8912575840950012e-01 -1.4816124737262726e-01</leafValues></_>
        <_>
          <internalNodes>
            0 -1 578 -3.1705210858490318e-05</internalNodes>
          <leafValues>
            -2.9653096199035645e-01 2.2758871316909790e-01</leafValues></_>
        <_>
          <internalNodes>
            0 -1 423 2.1425340673886240e-04</internalNodes>
          <leafValues>
            2.5455933809280396e-01 -2.7156412601470947e-01</leafValues></_>
        <_>
          <internalNodes>
            0 -1 13 -3.6911736242473125e-03</internalNodes>
          <leafValues>
            6.5323233604431152e-01 -9.6123933792114258e-02</leafValues></_>
        <_>
          <internalNodes>
            0 -1 453 -1.5412554144859314e-02</internalNodes>
          <leafValues>
            -7.1269303560256958e-01 1.0035929828882217e-01</leafValues></_>
        <_>
          <internalNodes>
            0 -1 487 1.2831108178943396e-03</internalNodes>
          <leafValues>
            -9.3915738165378571e-02 8.1017756462097168e-01</leafValues></_>
        <_>
          <internalNodes>
            0 -1 676 6.5535935573279858e-03</internalNodes>
          <leafValues>
            -1.0961066186428070e-01 5.2776283025741577e-01</leafValues></_>
        <_>
          <internalNodes>
            0 -1 408 -9.6069055143743753e-04</internalNodes>
          <leafValues>
            5.0304400920867920e-01 -1.1827949434518814e-01</leafValues></_>
        <_>
          <internalNodes>
            0 -1 335 -3.4977733157575130e-03</internalNodes>
          <leafValues>
            4.3137979507446289e-01 -1.3102823495864868e-01</leafValues></_>
        <_>
          <internalNodes>
            0 -1 454 -3.4351460635662079e-03</internalNodes>
          <leafValues>
            4.1846606135368347e-01 -1.3666619360446930e-01</leafValues></_>
        <_>
          <internalNodes>
            0 -1 398 7.3788338340818882e-04</internalNodes>
          <leafValues>
            -9.8026812076568604e-02 5.5302006006240845e-01</leafValues></_>
        <_>
          <internalNodes>
            0 -1 543 2.7423902793088928e-05</internalNodes>
          <leafValues>
            2.1710021793842316e-01 -2.8872087597846985e-01</leafValues></_>
        <_>
          <internalNodes>
            0 -1 692 -2.5564040697645396e-05</internalNodes>
          <leafValues>
            -3.4800514578819275e-01 1.6945914924144745e-01</leafValues></_>
        <_>
          <internalNodes>
            0 -1 295 2.3936855141073465e-03</internalNodes>
          <leafValues>
            -7.5830161571502686e-02 8.0941045284271240e-01</leafValues></_>
        <_>
          <internalNodes>
            0 -1 78 -1.4935112558305264e-03</internalNodes>
          <leafValues>
            2.9780632257461548e-01 -2.1183009445667267e-01</leafValues></_>
        <_>
          <internalNodes>
            0 -1 157 -8.9450832456350327e-03</internalNodes>
          <leafValues>
            6.5244841575622559e-01 -9.6823118627071381e-02</leafValues></_>
        <_>
          <internalNodes>
            0 -1 190 -5.8647477999329567e-03</internalNodes>
          <leafValues>
            4.2708152532577515e-01 -1.6091464459896088e-01</leafValues></_>
        <_>
          <internalNodes>
            0 -1 599 6.8970967549830675e-04</internalNodes>
          <leafValues>
            -1.1902239918708801e-01 4.9513384699821472e-01</leafValues></_>
        <_>
          <internalNodes>
            0 -1 621 -3.9239870384335518e-03</internalNodes>
          <leafValues>
            4.2946451902389526e-01 -1.5158547461032867e-01</leafValues></_>
        <_>
          <internalNodes>
            0 -1 640 2.3366828827420250e-05</internalNodes>
          <leafValues>
            1.8599964678287506e-01 -3.4755486249923706e-01</leafValues></_>
        <_>
          <internalNodes>
            0 -1 219 6.5446933731436729e-03</internalNodes>
          <leafValues>
            -1.0997052490711212e-01 5.6899827718734741e-01</leafValues></_>
        <_>
          <internalNodes>
            0 -1 227 4.7920877113938332e-03</internalNodes>
          <leafValues>
            -1.3369266688823700e-01 4.7396981716156006e-01</leafValues></_>
        <_>
          <internalNodes>
            0 -1 401 1.7816422769101337e-05</internalNodes>
          <leafValues>
            2.1195937693119049e-01 -3.1202965974807739e-01</leafValues></_>
        <_>
          <internalNodes>
            0 -1 306 -7.6917596161365509e-03</internalNodes>
          <leafValues>
            5.1564592123031616e-01 -1.2671335041522980e-01</leafValues></_>
        <_>
          <internalNodes>
            0 -1 601 -1.3051729183644056e-05</internalNodes>
          <leafValues>
            -3.4550774097442627e-01 1.8961726129055023e-01</leafValues></_>
        <_>
          <internalNodes>
            0 -1 350 -9.1396929929032922e-04</internalNodes>
          <leafValues>
            7.1215814352035522e-01 -9.1554507613182068e-02</leafValues></_>
        <_>
          <internalNodes>
            0 -1 627 -2.0482543855905533e-02</internalNodes>
          <leafValues>
            4.5352572202682495e-01 -1.3807712495326996e-01</leafValues></_></weakClassifiers></_>
    <!-- stage 6 -->
    <_>
      <maxWeakCount>35</maxWeakCount>
      <stageThreshold>-7.9598158597946167e-01</stageThreshold>
      <weakClassifiers>
        <_>
          <internalNodes>
            0 -1 40 -1.5041334554553032e-02</internalNodes>
          <leafValues>
            7.3693913221359253e-01 2.0657759904861450e-01</leafValues></_>
        <_>
          <internalNodes>
            0 -1 642 -1.6596239060163498e-02</internalNodes>
          <leafValues>
            5.8489829301834106e-01 -8.0386780202388763e-02</leafValues></_>
        <_>
          <internalNodes>
            0 -1 299 -1.1370765417814255e-01</internalNodes>
          <leafValues>
            4.4233900308609009e-01 -1.5918573737144470e-01</leafValues></_>
        <_>
          <internalNodes>
            0 -1 370 -2.1043416112661362e-02</internalNodes>
          <leafValues>
            3.0484116077423096e-01 -2.7769160270690918e-01</leafValues></_>
        <_>
          <internalNodes>
            0 -1 6 4.4305663323029876e-04</internalNodes>
          <leafValues>
            -1.7207518219947815e-01 4.4147244095802307e-01</leafValues></_>
        <_>
          <internalNodes>
            0 -1 715 -9.8357233218848705e-04</internalNodes>
          <leafValues>
            8.0925601720809937e-01 -8.2598358392715454e-02</leafValues></_>
        <_>
          <internalNodes>
            0 -1 95 1.6420553624629974e-01</internalNodes>
          <leafValues>
            1.4856109023094177e-01 -4.8799398541450500e-01</leafValues></_>
        <_>
          <internalNodes>
            0 -1 215 1.2562889605760574e-02</internalNodes>
          <leafValues>
            -9.6894271671772003e-02 7.6175552606582642e-01</leafValues></_>
        <_>
          <internalNodes>
            0 -1 647 5.4766115499660373e-04</internalNodes>
          <leafValues>
            -1.0885219275951385e-01 5.7141053676605225e-01</leafValues></_>
        <_>
          <internalNodes>
            0 -1 514 7.0632918504998088e-04</internalNodes>
          <leafValues>
            -7.7106378972530365e-02 7.0754468441009521e-01</leafValues></_>
        <_>
          <internalNodes>
            0 -1 624 4.7087833285331726e-02</internalNodes>
          <leafValues>
            -1.1302683502435684e-01 5.1603895425796509e-01</leafValues></_>
        <_>
          <internalNodes>
            0 -1 420 2.0486560970311984e-05</internalNodes>
          <leafValues>
            2.0331849157810211e-01 -3.1317728757858276e-01</leafValues></_>
        <_>
          <internalNodes>
            0 -1 564 4.4208599138073623e-04</internalNodes>
          <leafValues>
            -9.0407587587833405e-02 6.7952007055282593e-01</leafValues></_>
        <_>
          <internalNodes>
            0 -1 166 7.8890454024076462e-03</internalNodes>
          <leafValues>
            -5.9932217001914978e-02 8.1207174062728882e-01</leafValues></_>
        <_>
          <internalNodes>
            0 -1 689 -2.9190005734562874e-03</internalNodes>
          <leafValues>
            6.0852569341659546e-01 -8.0121323466300964e-02</leafValues></_>
        <_>
          <internalNodes>
            0 -1 455 -1.0692638170439750e-05</internalNodes>
          <leafValues>
            -2.9986405372619629e-01 1.9542989134788513e-01</leafValues></_>
        <_>
          <internalNodes>
            0 -1 374 8.7674707174301147e-05</internalNodes>
          <leafValues>
            -1.0905640572309494e-01 5.5921584367752075e-01</leafValues></_>
        <_>
          <internalNodes>
            0 -1 231 -4.4440230703912675e-04</internalNodes>
          <leafValues>
            -6.1234134435653687e-01 1.1080443859100342e-01</leafValues></_>
        <_>
          <internalNodes>
            0 -1 297 -1.5635669697076082e-03</internalNodes>
          <leafValues>
            5.6760960817337036e-01 -1.1937244236469269e-01</leafValues></_>
        <_>
          <internalNodes>
            0 -1 632 -1.7749441321939230e-03</internalNodes>
          <leafValues>
            5.1725023984909058e-01 -1.0746935755014420e-01</leafValues></_>
        <_>
          <internalNodes>
            0 -1 461 -2.1713911555707455e-03</internalNodes>
          <leafValues>
            -6.0657870769500732e-01 1.0764034837484360e-01</leafValues></_>
        <_>
          <internalNodes>
            0 -1 576 -8.1870157737284899e-04</internalNodes>
          <leafValues>
            4.5328271389007568e-01 -1.3254748284816742e-01</leafValues></_>
        <_>
          <internalNodes>
            0 -1 607 -3.7629974540323019e-03</internalNodes>
          <leafValues>
            4.0142554044723511e-01 -1.4380148053169250e-01</leafValues></_>
        <_>
          <internalNodes>
            0 -1 81 4.2160286102443933e-04</internalNodes>
          <leafValues>
            1.2008350342512131e-01 -5.1022642850875854e-01</leafValues></_>
        <_>
          <internalNodes>
            0 -1 705 2.0041158422827721e-03</internalNodes>
          <leafValues>
            -1.1266755312681198e-01 5.4265987873077393e-01</leafValues></_>
        <_>
          <internalNodes>
            0 -1 109 -4.2118981480598450e-02</internalNodes>
          <leafValues>
            3.8587775826454163e-01 -1.3959781825542450e-01</leafValues></_>
        <_>
          <internalNodes>
            0 -1 498 -4.8412131145596504e-03</internalNodes>
          <leafValues>
            3.4410953521728516e-01 -1.8054325878620148e-01</leafValues></_>
        <_>
          <internalNodes>
            0 -1 43 3.8070199079811573e-03</internalNodes>
          <leafValues>
            -7.8712366521358490e-02 6.6722387075424194e-01</leafValues></_>
        <_>
          <internalNodes>
            0 -1 441 -8.5555884652421810e-06</internalNodes>
          <leafValues>
            -2.8358772397041321e-01 2.1992857754230499e-01</leafValues></_>
        <_>
          <internalNodes>
            0 -1 467 4.6103421482257545e-05</internalNodes>
          <leafValues>
            -1.3949000835418701e-01 4.5753565430641174e-01</leafValues></_>
        <_>
          <internalNodes>
            0 -1 260 1.8598094582557678e-02</internalNodes>
          <leafValues>
            -1.1524488776922226e-01 4.8358878493309021e-01</leafValues></_>
        <_>
          <internalNodes>
            0 -1 207 -3.4234758466482162e-02</internalNodes>
          <leafValues>
            -5.8107799291610718e-01 1.1199844628572464e-01</leafValues></_>
        <_>
          <internalNodes>
            0 -1 536 8.5700000636279583e-04</internalNodes>
          <leafValues>
            -9.3983568251132965e-02 7.8318589925765991e-01</leafValues></_>
        <_>
          <internalNodes>
            0 -1 369 -2.2380558773875237e-02</internalNodes>
          <leafValues>
            -5.0442779064178467e-01 1.3069997727870941e-01</leafValues></_>
        <_>
          <internalNodes>
            0 -1 336 -2.4921528165577911e-06</internalNodes>
          <leafValues>
            2.1239648759365082e-01 -2.6060557365417480e-01</leafValues></_></weakClassifiers></_>
    <!-- stage 7 -->
    <_>
      <maxWeakCount>36</maxWeakCount>
      <stageThreshold>-6.2043857574462891e-01</stageThreshold>
      <weakClassifiers>
        <_>
          <internalNodes>
            0 -1 102 -3.4542196989059448e-01</internalNodes>
          <leafValues>
            8.2857143878936768e-01 3.6296296119689941e-01</leafValues></_>
        <_>
          <internalNodes>
            0 -1 636 2.2690594196319580e-02</internalNodes>
          <leafValues>
            -1.0980597883462906e-01 5.2157318592071533e-01</leafValues></_>
        <_>
          <internalNodes>
            0 -1 337 -1.5520568005740643e-02</internalNodes>
          <leafValues>
            4.8047274351119995e-01 -1.3316316902637482e-01</leafValues></_>
        <_>
          <internalNodes>
            0 -1 19 2.9238109709694982e-04</internalNodes>
          <leafValues>
            -2.0580227673053741e-01 3.7700319290161133e-01</leafValues></_>
        <_>
          <internalNodes>
            0 -1 716 -5.4929550969973207e-04</internalNodes>
          <leafValues>
            5.7226729393005371e-01 -1.2078282237052917e-01</leafValues></_>
        <_>
          <internalNodes>
            0 -1 181 -3.0066001272643916e-05</internalNodes>
          <leafValues>
            -4.4038352370262146e-01 1.3732486963272095e-01</leafValues></_>
        <_>
          <internalNodes>
            0 -1 497 5.0458032637834549e-03</internalNodes>
          <leafValues>
            -1.3022960722446442e-01 4.0585064888000488e-01</leafValues></_>
        <_>
          <internalNodes>
            0 -1 419 3.0622975900769234e-03</internalNodes>
          <leafValues>
            -1.2641195952892303e-01 4.8771792650222778e-01</leafValues></_>
        <_>
          <internalNodes>
            0 -1 395 -7.3139816522598267e-03</internalNodes>
          <leafValues>
            -7.0405846834182739e-01 8.6235366761684418e-02</leafValues></_>
        <_>
          <internalNodes>
            0 -1 171 -5.8761852415045723e-06</internalNodes>
          <leafValues>
            -2.7826389670372009e-01 1.9095735251903534e-01</leafValues></_>
        <_>
          <internalNodes>
            0 -1 509 1.4556064270436764e-03</internalNodes>
          <leafValues>
            -7.6018415391445160e-02 7.5332307815551758e-01</leafValues></_>
        <_>
          <internalNodes>
            0 -1 57 1.6265299636870623e-03</internalNodes>
          <leafValues>
            1.1924636363983154e-01 -4.8484006524085999e-01</leafValues></_>
        <_>
          <internalNodes>
            0 -1 329 2.0808586850762367e-03</internalNodes>
          <leafValues>
            -6.6257238388061523e-02 8.6401927471160889e-01</leafValues></_>
        <_>
          <internalNodes>
            0 -1 606 -4.6210503205657005e-04</internalNodes>
          <leafValues>
            -3.2830086350440979e-01 1.7222248017787933e-01</leafValues></_>
        <_>
          <internalNodes>
            0 -1 383 9.9077424965798855e-04</internalNodes>
          <leafValues>
            -1.7487947642803192e-01 3.0011767148971558e-01</leafValues></_>
        <_>
          <internalNodes>
            0 -1 581 2.8357811272144318e-02</internalNodes>
          <leafValues>
            -6.9735758006572723e-02 6.5446424484252930e-01</leafValues></_>
        <_>
          <internalNodes>
            0 -1 2 -1.6097318381071091e-02</internalNodes>
          <leafValues>
            4.1209888458251953e-01 -1.2420982122421265e-01</leafValues></_>
        <_>
          <internalNodes>
            0 -1 247 4.2171729728579521e-03</internalNodes>
          <leafValues>
            -9.3876108527183533e-02 5.8400350809097290e-01</leafValues></_>
        <_>
          <internalNodes>
            0 -1 357 1.5760509995743632e-03</internalNodes>
          <leafValues>
            7.1621954441070557e-02 -8.6885517835617065e-01</leafValues></_>
        <_>
          <internalNodes>
            0 -1 72 3.2018944621086121e-02</internalNodes>
          <leafValues>
            -1.0979140549898148e-01 5.4042047262191772e-01</leafValues></_>
        <_>
          <internalNodes>
            0 -1 713 -5.3631514310836792e-04</internalNodes>
          <leafValues>
            8.3823686838150024e-01 -5.6024275720119476e-02</leafValues></_>
        <_>
          <internalNodes>
            0 -1 169 -1.1862765859405044e-05</internalNodes>
          <leafValues>
            -2.9718953371047974e-01 1.8845224380493164e-01</leafValues></_>
        <_>
          <internalNodes>
            0 -1 3 -7.4710857868194580e-01</internalNodes>
          <leafValues>
            6.9455122947692871e-01 -7.6785475015640259e-02</leafValues></_>
        <_>
          <internalNodes>
            0 -1 290 4.3564243242144585e-03</internalNodes>
          <leafValues>
            -1.4124694466590881e-01 3.6573657393455505e-01</leafValues></_>
        <_>
          <internalNodes>
            0 -1 41 4.3621702934615314e-04</internalNodes>
          <leafValues>
            -8.1098571419715881e-02 5.8732569217681885e-01</leafValues></_>
        <_>
          <internalNodes>
            0 -1 165 -2.2671763872494921e-05</internalNodes>
          <leafValues>
            -3.6127692461013794e-01 1.5365536510944366e-01</leafValues></_>
        <_>
          <internalNodes>
            0 -1 580 1.3390299864113331e-03</internalNodes>
          <leafValues>
            -9.1167606413364410e-02 6.0546261072158813e-01</leafValues></_>
        <_>
          <internalNodes>
            0 -1 602 3.5902373492717743e-02</internalNodes>
          <leafValues>
            -5.6657582521438599e-02 7.6904040575027466e-01</leafValues></_>
        <_>
          <internalNodes>
            0 -1 510 6.2303042795974761e-05</internalNodes>
          <leafValues>
            2.1942169964313507e-01 -2.4620060622692108e-01</leafValues></_>
        <_>
          <internalNodes>
            0 -1 574 -5.4697156883776188e-04</internalNodes>
          <leafValues>
            6.5505552291870117e-01 -8.1979446113109589e-02</leafValues></_>
        <_>
          <internalNodes>
            0 -1 178 -4.4052116572856903e-04</internalNodes>
          <leafValues>
            6.5589451789855957e-01 -7.1404285728931427e-02</leafValues></_>
        <_>
          <internalNodes>
            0 -1 446 4.9453997053205967e-04</internalNodes>
          <leafValues>
            -6.4280688762664795e-02 7.0199805498123169e-01</leafValues></_>
        <_>
          <internalNodes>
            0 -1 585 1.3274003285914660e-03</internalNodes>
          <leafValues>
            8.4800764918327332e-02 -7.6825678348541260e-01</leafValues></_>
        <_>
          <internalNodes>
            0 -1 458 3.7368125049397349e-04</internalNodes>
          <leafValues>
            -1.5429244935512543e-01 3.7781834602355957e-01</leafValues></_>
        <_>
          <internalNodes>
            0 -1 112 -9.1931069619022310e-06</internalNodes>
          <leafValues>
            -2.8430482745170593e-01 1.9768041372299194e-01</leafValues></_>
        <_>
          <internalNodes>
            0 -1 14 -1.4843959361314774e-03</internalNodes>
          <leafValues>
            4.8413529992103577e-01 -1.0826967656612396e-01</leafValues></_></weakClassifiers></_>
    <!-- stage 8 -->
    <_>
      <maxWeakCount>36</maxWeakCount>
      <stageThreshold>-7.9951083660125732e-01</stageThreshold>
      <weakClassifiers>
        <_>
          <internalNodes>
            0 -1 135 -6.8573728203773499e-02</internalNodes>
          <leafValues>
            7.1588087081909180e-01 2.4898785352706909e-01</leafValues></_>
        <_>
          <internalNodes>
            0 -1 38 -2.9736176133155823e-02</internalNodes>
          <leafValues>
            5.4197919368743896e-01 -9.5273137092590332e-02</leafValues></_>
        <_>
          <internalNodes>
            0 -1 431 -9.7338184714317322e-03</internalNodes>
          <leafValues>
            5.3542399406433105e-01 -1.1869535595178604e-01</leafValues></_>
        <_>
          <internalNodes>
            0 -1 308 3.5754048731178045e-03</internalNodes>
          <leafValues>
            -1.8956810235977173e-01 4.0106642246246338e-01</leafValues></_>
        <_>
          <internalNodes>
            0 -1 226 -2.3324112407863140e-03</internalNodes>
          <leafValues>
            4.4629308581352234e-01 -1.4670456945896149e-01</leafValues></_>
        <_>
          <internalNodes>
            0 -1 400 3.1743501313030720e-03</internalNodes>
          <leafValues>
            -2.5776949524879456e-01 2.1964447200298309e-01</leafValues></_>
        <_>
          <internalNodes>
            0 -1 33 1.3901462778449059e-02</internalNodes>
          <leafValues>
            -8.7945558130741119e-02 6.3105398416519165e-01</leafValues></_>
        <_>
          <internalNodes>
            0 -1 417 -4.0268474258482456e-03</internalNodes>
          <leafValues>
            3.5701304674148560e-01 -1.5764901041984558e-01</leafValues></_>
        <_>
          <internalNodes>
            0 -1 459 1.4424637192860246e-03</internalNodes>
          <leafValues>
            -1.3904236257076263e-01 4.4499099254608154e-01</leafValues></_>
        <_>
          <internalNodes>
            0 -1 702 7.4265012517571449e-04</internalNodes>
          <leafValues>
            1.3380208611488342e-01 -4.4689771533012390e-01</leafValues></_>
        <_>
          <internalNodes>
            0 -1 352 9.0533249021973461e-06</internalNodes>
          <leafValues>
            1.5709376335144043e-01 -3.4945014119148254e-01</leafValues></_>
        <_>
          <internalNodes>
            0 -1 291 -6.2232499476522207e-04</internalNodes>
          <leafValues>
            -5.9567081928253174e-01 9.0810179710388184e-02</leafValues></_>
        <_>
          <internalNodes>
            0 -1 656 5.1473542116582394e-03</internalNodes>
          <leafValues>
            -1.3403707742691040e-01 4.2180636525154114e-01</leafValues></_>
        <_>
          <internalNodes>
            0 -1 122 2.8312969952821732e-02</internalNodes>
          <leafValues>
            -9.8573856055736542e-02 5.3327357769012451e-01</leafValues></_>
        <_>
          <internalNodes>
            0 -1 330 1.0278068948537111e-03</internalNodes>
          <leafValues>
            -8.7939850986003876e-02 4.9924248456954956e-01</leafValues></_>
        <_>
          <internalNodes>
            0 -1 132 2.4338394403457642e-02</internalNodes>
          <leafValues>
            -9.5816545188426971e-02 5.0124347209930420e-01</leafValues></_>
        <_>
          <internalNodes>
            0 -1 121 -1.0066606104373932e-02</internalNodes>
          <leafValues>
            3.6571598052978516e-01 -1.4184378087520599e-01</leafValues></_>
        <_>
          <internalNodes>
            0 -1 130 2.6922963559627533e-02</internalNodes>
          <leafValues>
            -8.5268490016460419e-02 7.2801011800765991e-01</leafValues></_>
        <_>
          <internalNodes>
            0 -1 244 -5.2033583633601665e-03</internalNodes>
          <leafValues>
            4.1372817754745483e-01 -1.2336645275354385e-01</leafValues></_>
        <_>
          <internalNodes>
            0 -1 630 1.7584770917892456e-02</internalNodes>
          <leafValues>
            -1.0181520134210587e-01 5.0416785478591919e-01</leafValues></_>
        <_>
          <internalNodes>
            0 -1 604 -1.2452460825443268e-02</internalNodes>
          <leafValues>
            3.8824874162673950e-01 -1.4964722096920013e-01</leafValues></_>
        <_>
          <internalNodes>
            0 -1 407 6.0333067085593939e-04</internalNodes>
          <leafValues>
            -9.0346708893775940e-02 5.6032788753509521e-01</leafValues></_>
        <_>
          <internalNodes>
            0 -1 296 1.9822181202471256e-03</internalNodes>
          <leafValues>
            -5.2146267145872116e-02 8.4435552358627319e-01</leafValues></_>
        <_>
          <internalNodes>
            0 -1 611 4.8334849998354912e-03</internalNodes>
          <leafValues>
            -6.9668285548686981e-02 6.2779825925827026e-01</leafValues></_>
        <_>
          <internalNodes>
            0 -1 691 -2.5755832903087139e-03</internalNodes>
          <leafValues>
            4.4734555482864380e-01 -1.0486225038766861e-01</leafValues></_>
        <_>
          <internalNodes>
            0 -1 687 -6.0796523939643521e-06</internalNodes>
          <leafValues>
            -3.2526794075965881e-01 1.7443075776100159e-01</leafValues></_>
        <_>
          <internalNodes>
            0 -1 89 -4.4972166506340727e-05</internalNodes>
          <leafValues>
            -3.9495047926902771e-01 1.2296997010707855e-01</leafValues></_>
        <_>
          <internalNodes>
            0 -1 594 -2.6602079160511494e-03</internalNodes>
          <leafValues>
            3.6000290513038635e-01 -1.3626919686794281e-01</leafValues></_>
        <_>
          <internalNodes>
            0 -1 315 -1.4887930825352669e-02</internalNodes>
          <leafValues>
            3.4115621447563171e-01 -1.4849552512168884e-01</leafValues></_>
        <_>
          <internalNodes>
            0 -1 342 -5.3076146286912262e-05</internalNodes>
          <leafValues>
            -4.7033613920211792e-01 1.1541849374771118e-01</leafValues></_>
        <_>
          <internalNodes>
            0 -1 91 4.2436495423316956e-03</internalNodes>
          <leafValues>
            -9.2179425060749054e-02 6.2646669149398804e-01</leafValues></_>
        <_>
          <internalNodes>
            0 -1 293 -2.0467892754822969e-03</internalNodes>
          <leafValues>
            4.7995626926422119e-01 -9.7243748605251312e-02</leafValues></_>
        <_>
          <internalNodes>
            0 -1 460 -5.4983906447887421e-03</internalNodes>
          <leafValues>
            4.5280125737190247e-01 -1.1889982223510742e-01</leafValues></_>
        <_>
          <internalNodes>
            0 -1 318 1.3233767822384834e-03</internalNodes>
          <leafValues>
            -1.6946946084499359e-01 3.8376328349113464e-01</leafValues></_>
        <_>
          <internalNodes>
            0 -1 364 -5.3418136667460203e-04</internalNodes>
          <leafValues>
            6.1175864934921265e-01 -8.6305931210517883e-02</leafValues></_>
        <_>
          <internalNodes>
            0 -1 620 -1.5157649613684043e-05</internalNodes>
          <leafValues>
            -4.1322013735771179e-01 1.3258898258209229e-01</leafValues></_></weakClassifiers></_>
    <!-- stage 9 -->
    <_>
      <maxWeakCount>36</maxWeakCount>
      <stageThreshold>-6.4311873912811279e-01</stageThreshold>
      <weakClassifiers>
        <_>
          <internalNodes>
            0 -1 405 2.4608783860458061e-05</internalNodes>
          <leafValues>
            6.7710584402084351e-01 1.9518716633319855e-01</leafValues></_>
        <_>
          <internalNodes>
            0 -1 661 1.4449981972575188e-02</internalNodes>
          <leafValues>
            -9.9047524854540825e-03 8.3564454317092896e-01</leafValues></_>
        <_>
          <internalNodes>
            0 -1 210 -4.7126516699790955e-01</internalNodes>
          <leafValues>
            5.0690633058547974e-01 -1.3319976627826691e-01</leafValues></_>
        <_>
          <internalNodes>
            0 -1 517 -2.4721175577724352e-05</internalNodes>
          <leafValues>
            -2.6898777484893799e-01 2.1131397783756256e-01</leafValues></_>
        <_>
          <internalNodes>
            0 -1 649 1.8448729068040848e-02</internalNodes>
          <leafValues>
            -7.9997487366199493e-02 6.0384505987167358e-01</leafValues></_>
        <_>
          <internalNodes>
            0 -1 652 -4.5160315930843353e-03</internalNodes>
          <leafValues>
            4.3403974175453186e-01 -1.4023007452487946e-01</leafValues></_>
        <_>
          <internalNodes>
            0 -1 137 1.1832047253847122e-02</internalNodes>
          <leafValues>
            -8.0886885523796082e-02 6.4334982633590698e-01</leafValues></_>
        <_>
          <internalNodes>
            0 -1 175 -2.7428816538304090e-03</internalNodes>
          <leafValues>
            3.7606310844421387e-01 -1.7643068730831146e-01</leafValues></_>
        <_>
          <internalNodes>
            0 -1 409 1.9292066572234035e-03</internalNodes>
          <leafValues>
            -6.2708623707294464e-02 6.7146277427673340e-01</leafValues></_>
        <_>
          <internalNodes>
            0 -1 141 9.7675183496903628e-06</internalNodes>
          <leafValues>
            1.7302425205707550e-01 -2.9008740186691284e-01</leafValues></_>
        <_>
          <internalNodes>
            0 -1 246 1.9816797226667404e-02</internalNodes>
          <leafValues>
            8.1333570182323456e-02 -5.9861707687377930e-01</leafValues></_>
        <_>
          <internalNodes>
            0 -1 674 -1.7094730865210295e-03</internalNodes>
          <leafValues>
            -5.3157913684844971e-01 8.8851563632488251e-02</leafValues></_>
        <_>
          <internalNodes>
            0 -1 289 -2.7235888410359621e-03</internalNodes>
          <leafValues>
            6.2783408164978027e-01 -9.4176694750785828e-02</leafValues></_>
        <_>
          <internalNodes>
            0 -1 484 1.2914696708321571e-04</internalNodes>
          <leafValues>
            -6.8439416587352753e-02 6.4237415790557861e-01</leafValues></_>
        <_>
          <internalNodes>
            0 -1 415 -1.5211320715025067e-04</internalNodes>
          <leafValues>
            -3.2062536478042603e-01 1.6915513575077057e-01</leafValues></_>
        <_>
          <internalNodes>
            0 -1 392 8.4752289694733918e-05</internalNodes>
          <leafValues>
            -1.1503650248050690e-01 5.3477919101715088e-01</leafValues></_>
        <_>
          <internalNodes>
            0 -1 21 1.7949162283912301e-03</internalNodes>
          <leafValues>
            -1.5365022420883179e-01 3.1807357072830200e-01</leafValues></_>
        <_>
          <internalNodes>
            0 -1 139 -8.5477344691753387e-03</internalNodes>
          <leafValues>
            3.9988490939140320e-01 -1.3059933483600616e-01</leafValues></_>
        <_>
          <internalNodes>
            0 -1 321 4.0441111195832491e-04</internalNodes>
          <leafValues>
            2.0409919321537018e-01 -2.5036770105361938e-01</leafValues></_>
        <_>
          <internalNodes>
            0 -1 531 5.5916192941367626e-03</internalNodes>
          <leafValues>
            -1.2692713737487793e-01 4.6870893239974976e-01</leafValues></_>
        <_>
          <internalNodes>
            0 -1 186 9.3334838747978210e-03</internalNodes>
          <leafValues>
            -1.1545370519161224e-01 4.5649549365043640e-01</leafValues></_>
        <_>
          <internalNodes>
            0 -1 598 -1.6110672149807215e-03</internalNodes>
          <leafValues>
            -4.5056366920471191e-01 1.2781879305839539e-01</leafValues></_>
        <_>
          <internalNodes>
            0 -1 533 -7.0255664468277246e-06</internalNodes>
          <leafValues>
            -2.7838769555091858e-01 1.9496028125286102e-01</leafValues></_>
        <_>
          <internalNodes>
            0 -1 265 -4.8157409764826298e-03</internalNodes>
          <leafValues>
            5.7369357347488403e-01 -9.6518561244010925e-02</leafValues></_>
        <_>
          <internalNodes>
            0 -1 367 -6.0870511333632749e-06</internalNodes>
          <leafValues>
            -3.5456442832946777e-01 1.6234758496284485e-01</leafValues></_>
        <_>
          <internalNodes>
            0 -1 549 -2.0082052797079086e-03</internalNodes>
          <leafValues>
            4.0869337320327759e-01 -1.3737715780735016e-01</leafValues></_>
        <_>
          <internalNodes>
            0 -1 704 -2.7477007824927568e-04</internalNodes>
          <leafValues>
            5.5003237724304199e-01 -8.2935079932212830e-02</leafValues></_>
        <_>
          <internalNodes>
            0 -1 557 -9.6891389694064856e-04</internalNodes>
          <leafValues>
            -6.8438023328781128e-01 8.8973000645637512e-02</leafValues></_>
        <_>
          <internalNodes>
            0 -1 473 3.4500731271691620e-04</internalNodes>
          <leafValues>
            -1.1977267265319824e-01 4.6608564257621765e-01</leafValues></_>
        <_>
          <internalNodes>
            0 -1 123 -5.9809608501382172e-06</internalNodes>
          <leafValues>
            -3.1093287467956543e-01 1.6995084285736084e-01</leafValues></_>
        <_>
          <internalNodes>
            0 -1 643 1.4410471543669701e-02</internalNodes>
          <leafValues>
            -7.0656731724739075e-02 7.9396098852157593e-01</leafValues></_>
        <_>
          <internalNodes>
            0 -1 152 -1.4126650057733059e-05</internalNodes>
          <leafValues>
            -2.6259395480155945e-01 1.9850035011768341e-01</leafValues></_>
        <_>
          <internalNodes>
            0 -1 284 4.1811317205429077e-03</internalNodes>
          <leafValues>
            -6.1026856303215027e-02 8.1593990325927734e-01</leafValues></_>
        <_>
          <internalNodes>
            0 -1 257 -6.8565411493182182e-04</internalNodes>
          <leafValues>
            7.3522639274597168e-01 -5.9782613068819046e-02</leafValues></_>
        <_>
          <internalNodes>
            0 -1 56 -4.6826602192595601e-04</internalNodes>
          <leafValues>
            -4.3016254901885986e-01 1.3820129632949829e-01</leafValues></_>
        <_>
          <internalNodes>
            0 -1 18 2.4804344866424799e-04</internalNodes>
          <leafValues>
            -1.3451239466667175e-01 4.0068408846855164e-01</leafValues></_></weakClassifiers></_>
    <!-- stage 10 -->
    <_>
      <maxWeakCount>38</maxWeakCount>
      <stageThreshold>-6.2715858221054077e-01</stageThreshold>
      <weakClassifiers>
        <_>
          <internalNodes>
            0 -1 622 2.8664173558354378e-02</internalNodes>
          <leafValues>
            3.4149855375289917e-01 7.6402640342712402e-01</leafValues></_>
        <_>
          <internalNodes>
            0 -1 292 4.0636554360389709e-02</internalNodes>
          <leafValues>
            -1.0980102419853210e-01 4.5497199892997742e-01</leafValues></_>
        <_>
          <internalNodes>
            0 -1 36 9.1001829132437706e-03</internalNodes>
          <leafValues>
            -1.0915671288967133e-01 5.0802671909332275e-01</leafValues></_>
        <_>
          <internalNodes>
            0 -1 104 -1.4951255172491074e-02</internalNodes>
          <leafValues>
            4.7302168607711792e-01 -1.3525350391864777e-01</leafValues></_>
        <_>
          <internalNodes>
            0 -1 179 -9.2588178813457489e-03</internalNodes>
          <leafValues>
            3.5413879156112671e-01 -1.5033842623233795e-01</leafValues></_>
        <_>
          <internalNodes>
            0 -1 142 -1.1901355348527431e-02</internalNodes>
          <leafValues>
            6.7918306589126587e-01 -7.8295871615409851e-02</leafValues></_>
        <_>
          <internalNodes>
            0 -1 437 -1.2880423128081020e-05</internalNodes>
          <leafValues>
            -2.9272836446762085e-01 1.8071302771568298e-01</leafValues></_>
        <_>
          <internalNodes>
            0 -1 208 -3.7819603458046913e-03</internalNodes>
          <leafValues>
            4.2535769939422607e-01 -1.2479991465806961e-01</leafValues></_>
        <_>
          <internalNodes>
            0 -1 360 -2.4063568562269211e-02</internalNodes>
          <leafValues>
            4.3107122182846069e-01 -1.0702205449342728e-01</leafValues></_>
        <_>
          <internalNodes>
            0 -1 554 2.0930272876285017e-04</internalNodes>
          <leafValues>
            -8.3231881260871887e-02 6.4765399694442749e-01</leafValues></_>
        <_>
          <internalNodes>
            0 -1 251 -8.6278491653501987e-04</internalNodes>
          <leafValues>
            -5.1485776901245117e-01 1.1080713570117950e-01</leafValues></_>
        <_>
          <internalNodes>
            0 -1 262 -1.6529163985978812e-05</internalNodes>
          <leafValues>
            2.0988315343856812e-01 -2.4645437300205231e-01</leafValues></_>
        <_>
          <internalNodes>
            0 -1 191 5.1303822547197342e-03</internalNodes>
          <leafValues>
            -1.3515250384807587e-01 3.6998832225799561e-01</leafValues></_>
        <_>
          <internalNodes>
            0 -1 506 -3.1713261269032955e-03</internalNodes>
          <leafValues>
            7.1864503622055054e-01 -5.9489745646715164e-02</leafValues></_>
        <_>
          <internalNodes>
            0 -1 449 7.3937417255365290e-07</internalNodes>
          <leafValues>
            -1.8428242206573486e-01 2.6005938649177551e-01</leafValues></_>
        <_>
          <internalNodes>
            0 -1 147 -5.8010446082334965e-05</internalNodes>
          <leafValues>
            2.6247864961624146e-01 -2.1587818861007690e-01</leafValues></_>
        <_>
          <internalNodes>
            0 -1 264 -1.3201481197029352e-03</internalNodes>
          <leafValues>
            7.0369803905487061e-01 -6.8275913596153259e-02</leafValues></_>
        <_>
          <internalNodes>
            0 -1 151 -1.0507590559427626e-05</internalNodes>
          <leafValues>
            -2.8740432858467102e-01 1.7443844676017761e-01</leafValues></_>
        <_>
          <internalNodes>
            0 -1 131 -5.6016920134425163e-03</internalNodes>
          <leafValues>
            4.8791337013244629e-01 -9.9674172699451447e-02</leafValues></_>
        <_>
          <internalNodes>
            0 -1 650 6.4654945163056254e-04</internalNodes>
          <leafValues>
            1.1988213658332825e-01 -4.3140450119972229e-01</leafValues></_>
        <_>
          <internalNodes>
            0 -1 238 5.7638427242636681e-03</internalNodes>
          <leafValues>
            -1.3156591355800629e-01 4.2101731896400452e-01</leafValues></_>
        <_>
          <internalNodes>
            0 -1 619 -1.9326677545905113e-02</internalNodes>
          <leafValues>
            5.8424502611160278e-01 -8.0552555620670319e-02</leafValues></_>
        <_>
          <internalNodes>
            0 -1 605 -1.8907680350821465e-04</internalNodes>
          <leafValues>
            -4.4814902544021606e-01 1.1738324165344238e-01</leafValues></_>
        <_>
          <internalNodes>
            0 -1 471 -7.8724883678660262e-07</internalNodes>
          <leafValues>
            2.0428395271301270e-01 -2.4291019141674042e-01</leafValues></_>
        <_>
          <internalNodes>
            0 -1 313 7.8821169154252857e-05</internalNodes>
          <leafValues>
            1.9708056747913361e-01 -2.6040607690811157e-01</leafValues></_>
        <_>
          <internalNodes>
            0 -1 559 -2.9695764533244073e-04</internalNodes>
          <leafValues>
            -2.6799115538597107e-01 2.0101800560951233e-01</leafValues></_>
        <_>
          <internalNodes>
            0 -1 376 1.6933416191022843e-05</internalNodes>
          <leafValues>
            -2.1053299307823181e-01 2.8116652369499207e-01</leafValues></_>
        <_>
          <internalNodes>
            0 -1 544 -3.1495653092861176e-03</internalNodes>
          <leafValues>
            6.2102931737899780e-01 -7.9671010375022888e-02</leafValues></_>
        <_>
          <internalNodes>
            0 -1 518 -3.3105738111771643e-05</internalNodes>
          <leafValues>
            -2.6685732603073120e-01 2.1118757128715515e-01</leafValues></_>
        <_>
          <internalNodes>
            0 -1 457 -1.1206434108316898e-02</internalNodes>
          <leafValues>
            8.1477218866348267e-01 -6.7576296627521515e-02</leafValues></_>
        <_>
          <internalNodes>
            0 -1 240 6.7242857767269015e-04</internalNodes>
          <leafValues>
            9.3482427299022675e-02 -6.8027466535568237e-01</leafValues></_>
        <_>
          <internalNodes>
            0 -1 362 1.0518231429159641e-03</internalNodes>
          <leafValues>
            -1.2284138798713684e-01 4.6089684963226318e-01</leafValues></_>
        <_>
          <internalNodes>
            0 -1 660 -6.3469493761658669e-04</internalNodes>
          <leafValues>
            5.4997074604034424e-01 -9.0221479535102844e-02</leafValues></_>
        <_>
          <internalNodes>
            0 -1 307 -7.1100279456004500e-04</internalNodes>
          <leafValues>
            6.2657767534255981e-01 -8.0783091485500336e-02</leafValues></_>
        <_>
          <internalNodes>
            0 -1 145 8.5002789273858070e-03</internalNodes>
          <leafValues>
            -1.0028891265392303e-01 4.9870222806930542e-01</leafValues></_>
        <_>
          <internalNodes>
            0 -1 118 3.1712249619886279e-04</internalNodes>
          <leafValues>
            1.0359306633472443e-01 -5.4077333211898804e-01</leafValues></_>
        <_>
          <internalNodes>
            0 -1 324 -3.7915573921054602e-03</internalNodes>
          <leafValues>
            5.0446677207946777e-01 -1.1245658993721008e-01</leafValues></_>
        <_>
          <internalNodes>
            0 -1 221 5.8890646323561668e-03</internalNodes>
          <leafValues>
            -1.5548194944858551e-01 3.6437645554542542e-01</leafValues></_></weakClassifiers></_>
    <!-- stage 11 -->
    <_>
      <maxWeakCount>42</maxWeakCount>
      <stageThreshold>-8.1643629074096680e-01</stageThreshold>
      <weakClassifiers>
        <_>
          <internalNodes>
            0 -1 68 -2.8025763109326363e-02</internalNodes>
          <leafValues>
            7.2972971200942993e-01 2.8571429848670959e-01</leafValues></_>
        <_>
          <internalNodes>
            0 -1 658 -1.3629175722599030e-02</internalNodes>
          <leafValues>
            5.7060676813125610e-01 -3.7607617676258087e-02</leafValues></_>
        <_>
          <internalNodes>
            0 -1 435 -2.3873792088124901e-05</internalNodes>
          <leafValues>
            -5.3447443246841431e-01 1.1804062128067017e-01</leafValues></_>
        <_>
          <internalNodes>
            0 -1 303 -5.5411706853192300e-05</internalNodes>
          <leafValues>
            2.2903609275817871e-01 -2.3315179347991943e-01</leafValues></_>
        <_>
          <internalNodes>
            0 -1 20 3.2197921536862850e-03</internalNodes>
          <leafValues>
            -1.7330779135227203e-01 3.5968947410583496e-01</leafValues></_>
        <_>
          <internalNodes>
            0 -1 358 -5.7106334716081619e-03</internalNodes>
          <leafValues>
            3.1768280267715454e-01 -1.5478634834289551e-01</leafValues></_>
        <_>
          <internalNodes>
            0 -1 390 1.5807508025318384e-03</internalNodes>
          <leafValues>
            -7.4881374835968018e-02 7.4702692031860352e-01</leafValues></_>
        <_>
          <internalNodes>
            0 -1 429 1.6721696592867374e-03</internalNodes>
          <leafValues>
            -6.5903797745704651e-02 5.9938693046569824e-01</leafValues></_>
        <_>
          <internalNodes>
            0 -1 11 -5.5673893075436354e-04</internalNodes>
          <leafValues>
            -5.9094005823135376e-01 9.2104956507682800e-02</leafValues></_>
        <_>
          <internalNodes>
            0 -1 28 -3.2619255944155157e-04</internalNodes>
          <leafValues>
            6.3374763727188110e-01 -9.6817016601562500e-02</leafValues></_>
        <_>
          <internalNodes>
            0 -1 184 1.0460535995662212e-03</internalNodes>
          <leafValues>
            8.6349867284297943e-02 -6.1910301446914673e-01</leafValues></_>
        <_>
          <internalNodes>
            0 -1 278 1.6901183407753706e-03</internalNodes>
          <leafValues>
            -6.8749174475669861e-02 7.4053746461868286e-01</leafValues></_>
        <_>
          <internalNodes>
            0 -1 51 1.8933493993245065e-04</internalNodes>
          <leafValues>
            -6.5076224505901337e-02 5.9953761100769043e-01</leafValues></_>
        <_>
          <internalNodes>
            0 -1 239 9.3719287542626262e-04</internalNodes>
          <leafValues>
            1.3693849742412567e-01 -3.5856091976165771e-01</leafValues></_>
        <_>
          <internalNodes>
            0 -1 672 7.1789458161219954e-05</internalNodes>
          <leafValues>
            1.8619006872177124e-01 -2.4116517603397369e-01</leafValues></_>
        <_>
          <internalNodes>
            0 -1 665 6.3205705955624580e-03</internalNodes>
          <leafValues>
            -1.1416714638471603e-01 4.0269428491592407e-01</leafValues></_>
        <_>
          <internalNodes>
            0 -1 684 -8.4509863518178463e-04</internalNodes>
          <leafValues>
            3.7281709909439087e-01 -1.3814966380596161e-01</leafValues></_>
        <_>
          <internalNodes>
            0 -1 148 1.4805668033659458e-03</internalNodes>
          <leafValues>
            -1.9971078634262085e-01 2.4472261965274811e-01</leafValues></_>
        <_>
          <internalNodes>
            0 -1 720 7.1913481224328279e-04</internalNodes>
          <leafValues>
            9.0800225734710693e-02 -5.4072463512420654e-01</leafValues></_>
        <_>
          <internalNodes>
            0 -1 452 -2.3104391992092133e-02</internalNodes>
          <leafValues>
            3.1878218054771423e-01 -1.5431113541126251e-01</leafValues></_>
        <_>
          <internalNodes>
            0 -1 412 -5.3942654281854630e-02</internalNodes>
          <leafValues>
            5.0149697065353394e-01 -1.0134456306695938e-01</leafValues></_>
        <_>
          <internalNodes>
            0 -1 211 -9.0543089754646644e-06</internalNodes>
          <leafValues>
            -3.1448379158973694e-01 1.5763494372367859e-01</leafValues></_>
        <_>
          <internalNodes>
            0 -1 625 7.9858470708131790e-03</internalNodes>
          <leafValues>
            -1.1421497911214828e-01 4.6936446428298950e-01</leafValues></_>
        <_>
          <internalNodes>
            0 -1 66 8.5035841912031174e-03</internalNodes>
          <leafValues>
            9.4172164797782898e-02 -6.7302691936492920e-01</leafValues></_>
        <_>
          <internalNodes>
            0 -1 527 -3.6496606189757586e-03</internalNodes>
          <leafValues>
            5.6727123260498047e-01 -9.3360699713230133e-02</leafValues></_>
        <_>
          <internalNodes>
            0 -1 491 1.8587170634418726e-03</internalNodes>
          <leafValues>
            1.1262586712837219e-01 -4.5713672041893005e-01</leafValues></_>
        <_>
          <internalNodes>
            0 -1 521 -3.8110709283500910e-04</internalNodes>
          <leafValues>
            3.9665895700454712e-01 -1.2281484156847000e-01</leafValues></_>
        <_>
          <internalNodes>
            0 -1 98 -1.0184818165726028e-05</internalNodes>
          <leafValues>
            -2.8623726963996887e-01 1.7928454279899597e-01</leafValues></_>
        <_>
          <internalNodes>
            0 -1 378 -4.4177128002047539e-03</internalNodes>
          <leafValues>
            -5.0187242031097412e-01 1.0122146457433701e-01</leafValues></_>
        <_>
          <internalNodes>
            0 -1 438 1.8485861801309511e-05</internalNodes>
          <leafValues>
            1.6596657037734985e-01 -2.8757309913635254e-01</leafValues></_>
        <_>
          <internalNodes>
            0 -1 595 -1.0321538429707289e-03</internalNodes>
          <leafValues>
            2.5027248263359070e-01 -2.1044205129146576e-01</leafValues></_>
        <_>
          <internalNodes>
            0 -1 469 -5.3358395234681666e-05</internalNodes>
          <leafValues>
            6.6345757246017456e-01 -8.0169908702373505e-02</leafValues></_>
        <_>
          <internalNodes>
            0 -1 507 -1.0293360101059079e-03</internalNodes>
          <leafValues>
            3.3194562792778015e-01 -1.4687418937683105e-01</leafValues></_>
        <_>
          <internalNodes>
            0 -1 107 5.7560214772820473e-03</internalNodes>
          <leafValues>
            -7.5488880276679993e-02 6.4129638671875000e-01</leafValues></_>
        <_>
          <internalNodes>
            0 -1 229 1.0120489168912172e-03</internalNodes>
          <leafValues>
            -1.2989142537117004e-01 3.6808049678802490e-01</leafValues></_>
        <_>
          <internalNodes>
            0 -1 434 -1.0552749699854758e-05</internalNodes>
          <leafValues>
            -4.1361063718795776e-01 1.2584650516510010e-01</leafValues></_>
        <_>
          <internalNodes>
            0 -1 322 7.6527277315108222e-07</internalNodes>
          <leafValues>
            -1.9608078896999359e-01 2.5441405177116394e-01</leafValues></_>
        <_>
          <internalNodes>
            0 -1 421 -4.2712856084108353e-03</internalNodes>
          <leafValues>
            2.0071960985660553e-01 -2.9170730710029602e-01</leafValues></_>
        <_>
          <internalNodes>
            0 -1 548 -6.3053489429876208e-04</internalNodes>
          <leafValues>
            3.2748389244079590e-01 -1.6254307329654694e-01</leafValues></_>
        <_>
          <internalNodes>
            0 -1 203 -4.2016748921014369e-04</internalNodes>
          <leafValues>
            2.7537119388580322e-01 -1.8893687427043915e-01</leafValues></_>
        <_>
          <internalNodes>
            0 -1 614 2.1017752587795258e-03</internalNodes>
          <leafValues>
            -6.4060442149639130e-02 7.5354385375976562e-01</leafValues></_>
        <_>
          <internalNodes>
            0 -1 486 -1.9723288714885712e-03</internalNodes>
          <leafValues>
            -5.8513349294662476e-01 9.4992995262145996e-02</leafValues></_></weakClassifiers></_>
    <!-- stage 12 -->
    <_>
      <maxWeakCount>43</maxWeakCount>
      <stageThreshold>-6.8787038326263428e-01</stageThreshold>
      <weakClassifiers>
        <_>
          <internalNodes>
            0 -1 29 -2.9139112681150436e-02</internalNodes>
          <leafValues>
            7.2994655370712280e-01 2.7898550033569336e-01</leafValues></_>
        <_>
          <internalNodes>
            0 -1 667 -1.1095913127064705e-02</internalNodes>
          <leafValues>
            6.0040885210037231e-01 -1.6790859401226044e-02</leafValues></_>
        <_>
          <internalNodes>
            0 -1 1 -9.8167024552822113e-03</internalNodes>
          <leafValues>
            4.0728548169136047e-01 -1.1490885168313980e-01</leafValues></_>
        <_>
          <internalNodes>
            0 -1 381 1.1504525318741798e-02</internalNodes>
          <leafValues>
            -1.2906734645366669e-01 4.4428128004074097e-01</leafValues></_>
        <_>
          <internalNodes>
            0 -1 562 6.6283086198382080e-05</internalNodes>
          <leafValues>
            1.6513207554817200e-01 -2.7442270517349243e-01</leafValues></_>
        <_>
          <internalNodes>
            0 -1 183 2.6694659143686295e-02</internalNodes>
          <leafValues>
            -7.4277579784393311e-02 6.2950921058654785e-01</leafValues></_>
        <_>
          <internalNodes>
            0 -1 551 -8.7959785014390945e-03</internalNodes>
          <leafValues>
            -6.0092574357986450e-01 8.7247319519519806e-02</leafValues></_>
        <_>
          <internalNodes>
            0 -1 39 5.4763950174674392e-04</internalNodes>
          <leafValues>
            -9.3835562467575073e-02 5.5239272117614746e-01</leafValues></_>
        <_>
          <internalNodes>
            0 -1 73 9.0410076081752777e-03</internalNodes>
          <leafValues>
            -7.6735883951187134e-02 6.7346578836441040e-01</leafValues></_>
        <_>
          <internalNodes>
            0 -1 343 3.1323024813900702e-06</internalNodes>
          <leafValues>
            2.2670122981071472e-01 -2.2917038202285767e-01</leafValues></_>
        <_>
          <internalNodes>
            0 -1 698 -2.9932046309113503e-03</internalNodes>
          <leafValues>
            5.8489394187927246e-01 -8.6500056087970734e-02</leafValues></_>
        <_>
          <internalNodes>
            0 -1 143 -1.6598965739831328e-03</internalNodes>
          <leafValues>
            3.5520279407501221e-01 -1.3757482171058655e-01</leafValues></_>
        <_>
          <internalNodes>
            0 -1 374 9.0849178377538919e-05</internalNodes>
          <leafValues>
            -9.1751210391521454e-02 4.9426165223121643e-01</leafValues></_>
        <_>
          <internalNodes>
            0 -1 500 -4.2236261069774628e-03</internalNodes>
          <leafValues>
            -6.8690073490142822e-01 7.8698016703128815e-02</leafValues></_>
        <_>
          <internalNodes>
            0 -1 403 4.3928052764385939e-04</internalNodes>
          <leafValues>
            -1.7217479646205902e-01 2.9240798950195312e-01</leafValues></_>
        <_>
          <internalNodes>
            0 -1 309 7.0351278409361839e-03</internalNodes>
          <leafValues>
            -7.9648613929748535e-02 5.4845446348190308e-01</leafValues></_>
        <_>
          <internalNodes>
            0 -1 84 3.1232158653438091e-04</internalNodes>
          <leafValues>
            9.0619288384914398e-02 -5.9507268667221069e-01</leafValues></_>
        <_>
          <internalNodes>
            0 -1 62 -8.4081172943115234e-01</internalNodes>
          <leafValues>
            6.7820256948471069e-01 -7.6311439275741577e-02</leafValues></_>
        <_>
          <internalNodes>
            0 -1 134 3.2743474002927542e-04</internalNodes>
          <leafValues>
            -1.7923790216445923e-01 2.8368607163429260e-01</leafValues></_>
        <_>
          <internalNodes>
            0 -1 683 -2.7662799693644047e-03</internalNodes>
          <leafValues>
            5.4645878076553345e-01 -8.7463974952697754e-02</leafValues></_>
        <_>
          <internalNodes>
            0 -1 92 -1.2042695743730292e-05</internalNodes>
          <leafValues>
            -2.9909870028495789e-01 1.8266588449478149e-01</leafValues></_>
        <_>
          <internalNodes>
            0 -1 113 -1.4632989186793566e-03</internalNodes>
          <leafValues>
            3.7267094850540161e-01 -1.3644163310527802e-01</leafValues></_>
        <_>
          <internalNodes>
            0 -1 475 1.2830874766223133e-04</internalNodes>
          <leafValues>
            1.4516346156597137e-01 -3.2311069965362549e-01</leafValues></_>
        <_>
          <internalNodes>
            0 -1 341 -8.4769190289080143e-04</internalNodes>
          <leafValues>
            2.9492294788360596e-01 -1.6511520743370056e-01</leafValues></_>
        <_>
          <internalNodes>
            0 -1 27 -6.2591780442744493e-04</internalNodes>
          <leafValues>
            5.5373352766036987e-01 -8.7009117007255554e-02</leafValues></_>
        <_>
          <internalNodes>
            0 -1 216 2.0852189045399427e-03</internalNodes>
          <leafValues>
            -7.4410147964954376e-02 5.8726084232330322e-01</leafValues></_>
        <_>
          <internalNodes>
            0 -1 577 8.0521211202722043e-05</internalNodes>
          <leafValues>
            -7.4453860521316528e-02 5.4708147048950195e-01</leafValues></_>
        <_>
          <internalNodes>
            0 -1 718 5.1673036068677902e-04</internalNodes>
          <leafValues>
            1.0145753622055054e-01 -4.8602235317230225e-01</leafValues></_>
        <_>
          <internalNodes>
            0 -1 201 -1.1942705605179071e-03</internalNodes>
          <leafValues>
            3.3528634905815125e-01 -1.3758149743080139e-01</leafValues></_>
        <_>
          <internalNodes>
            0 -1 700 5.0758663564920425e-04</internalNodes>
          <leafValues>
            8.1417649984359741e-02 -6.1303979158401489e-01</leafValues></_>
        <_>
          <internalNodes>
            0 -1 483 -3.8906460395082831e-04</internalNodes>
          <leafValues>
            7.8360736370086670e-01 -6.4946494996547699e-02</leafValues></_>
        <_>
          <internalNodes>
            0 -1 12 7.9241675848606974e-05</internalNodes>
          <leafValues>
            1.6305737197399139e-01 -2.9292213916778564e-01</leafValues></_>
        <_>
          <internalNodes>
            0 -1 569 -1.1250842362642288e-03</internalNodes>
          <leafValues>
            6.9625186920166016e-01 -7.0998333394527435e-02</leafValues></_>
        <_>
          <internalNodes>
            0 -1 504 -1.0203261626884341e-03</internalNodes>
          <leafValues>
            7.5547224283218384e-01 -4.9410544335842133e-02</leafValues></_>
        <_>
          <internalNodes>
            0 -1 243 -3.5787779779639095e-05</internalNodes>
          <leafValues>
            -3.2669883966445923e-01 1.5589334070682526e-01</leafValues></_>
        <_>
          <internalNodes>
            0 -1 172 2.1838027983903885e-02</internalNodes>
          <leafValues>
            -1.0849313437938690e-01 5.2751272916793823e-01</leafValues></_>
        <_>
          <internalNodes>
            0 -1 177 -2.4506459012627602e-03</internalNodes>
          <leafValues>
            5.7023304700851440e-01 -8.0534629523754120e-02</leafValues></_>
        <_>
          <internalNodes>
            0 -1 451 -3.6027166061103344e-04</internalNodes>
          <leafValues>
            2.7220517396926880e-01 -1.8245127797126770e-01</leafValues></_>
        <_>
          <internalNodes>
            0 -1 393 1.1282887135166675e-04</internalNodes>
          <leafValues>
            -1.1114995181560516e-01 4.5515716075897217e-01</leafValues></_>
        <_>
          <internalNodes>
            0 -1 188 -2.9381914064288139e-03</internalNodes>
          <leafValues>
            3.9313200116157532e-01 -1.2165244668722153e-01</leafValues></_>
        <_>
          <internalNodes>
            0 -1 189 -1.4761930797249079e-03</internalNodes>
          <leafValues>
            4.1681745648384094e-01 -1.1072406172752380e-01</leafValues></_>
        <_>
          <internalNodes>
            0 -1 662 1.2750327587127686e-03</internalNodes>
          <leafValues>
            -7.8232057392597198e-02 5.7379001379013062e-01</leafValues></_>
        <_>
          <internalNodes>
            0 -1 653 1.3503031368600205e-05</internalNodes>
          <leafValues>
            1.8146552145481110e-01 -2.9441216588020325e-01</leafValues></_></weakClassifiers></_>
    <!-- stage 13 -->
    <_>
      <maxWeakCount>42</maxWeakCount>
      <stageThreshold>-6.2426668405532837e-01</stageThreshold>
      <weakClassifiers>
        <_>
          <internalNodes>
            0 -1 334 1.6319274902343750e-02</internalNodes>
          <leafValues>
            6.3306260108947754e-01 1.4792899787425995e-01</leafValues></_>
        <_>
          <internalNodes>
            0 -1 668 -1.1353449895977974e-02</internalNodes>
          <leafValues>
            6.6299486160278320e-01 -2.0598188042640686e-02</leafValues></_>
        <_>
          <internalNodes>
            0 -1 277 -9.6980772912502289e-02</internalNodes>
          <leafValues>
            4.7786957025527954e-01 -1.0811807215213776e-01</leafValues></_>
        <_>
          <internalNodes>
            0 -1 24 -4.4358026934787631e-04</internalNodes>
          <leafValues>
            6.4028072357177734e-01 -8.3983540534973145e-02</leafValues></_>
        <_>
          <internalNodes>
            0 -1 245 -7.4982909836762701e-07</internalNodes>
          <leafValues>
            2.1566271781921387e-01 -2.2843314707279205e-01</leafValues></_>
        <_>
          <internalNodes>
            0 -1 677 4.4176750816404819e-03</internalNodes>
          <leafValues>
            -1.5559302270412445e-01 3.4225350618362427e-01</leafValues></_>
        <_>
          <internalNodes>
            0 -1 635 2.9470804292941466e-05</internalNodes>
          <leafValues>
            2.1786661446094513e-01 -2.8001546859741211e-01</leafValues></_>
        <_>
          <internalNodes>
            0 -1 280 -6.3286733347922564e-04</internalNodes>
          <leafValues>
            5.7635116577148438e-01 -7.1707777678966522e-02</leafValues></_>
        <_>
          <internalNodes>
            0 -1 25 1.5897240955382586e-03</internalNodes>
          <leafValues>
            -1.1647672951221466e-01 3.8066795468330383e-01</leafValues></_>
        <_>
          <internalNodes>
            0 -1 217 3.3985745161771774e-02</internalNodes>
          <leafValues>
            -1.0158189386129379e-01 4.4991877675056458e-01</leafValues></_>
        <_>
          <internalNodes>
            0 -1 366 -2.5665969587862492e-04</internalNodes>
          <leafValues>
            2.4031341075897217e-01 -1.8496359884738922e-01</leafValues></_>
        <_>
          <internalNodes>
            0 -1 671 5.9643743952619843e-06</internalNodes>
          <leafValues>
            1.8170988559722900e-01 -2.3596085608005524e-01</leafValues></_>
        <_>
          <internalNodes>
            0 -1 701 3.4245557617396116e-04</internalNodes>
          <leafValues>
            8.1020377576351166e-02 -4.9525797367095947e-01</leafValues></_>
        <_>
          <internalNodes>
            0 -1 47 -1.6142150852829218e-03</internalNodes>
          <leafValues>
            3.9324262738227844e-01 -1.1008585989475250e-01</leafValues></_>
        <_>
          <internalNodes>
            0 -1 470 2.9901719244662672e-05</internalNodes>
          <leafValues>
            1.7638123035430908e-01 -2.5004106760025024e-01</leafValues></_>
        <_>
          <internalNodes>
            0 -1 513 -1.6193263581953943e-04</internalNodes>
          <leafValues>
            6.1605662107467651e-01 -7.0295140147209167e-02</leafValues></_>
        <_>
          <internalNodes>
            0 -1 99 -6.3695315475342795e-06</internalNodes>
          <leafValues>
            -2.7836418151855469e-01 1.5321379899978638e-01</leafValues></_>
        <_>
          <internalNodes>
            0 -1 93 -2.7247243560850620e-03</internalNodes>
          <leafValues>
            5.5713582038879395e-01 -7.7080875635147095e-02</leafValues></_>
        <_>
          <internalNodes>
            0 -1 603 -1.1247062357142568e-03</internalNodes>
          <leafValues>
            3.5929223895072937e-01 -1.1742753535509109e-01</leafValues></_>
        <_>
          <internalNodes>
            0 -1 588 1.4022807590663433e-03</internalNodes>
          <leafValues>
            8.1852778792381287e-02 -6.0354548692703247e-01</leafValues></_>
        <_>
          <internalNodes>
            0 -1 584 5.0154783821199089e-05</internalNodes>
          <leafValues>
            -1.0971423238515854e-01 4.3244278430938721e-01</leafValues></_>
        <_>
          <internalNodes>
            0 -1 204 2.2619087249040604e-03</internalNodes>
          <leafValues>
            5.8525711297988892e-02 -8.5826921463012695e-01</leafValues></_>
        <_>
          <internalNodes>
            0 -1 338 9.2283628880977631e-02</internalNodes>
          <leafValues>
            -1.2468203902244568e-01 3.9161196351051331e-01</leafValues></_>
        <_>
          <internalNodes>
            0 -1 493 -3.8937670178711414e-03</internalNodes>
          <leafValues>
            2.5992554426193237e-01 -1.8002684414386749e-01</leafValues></_>
        <_>
          <internalNodes>
            0 -1 182 1.7506128642708063e-03</internalNodes>
          <leafValues>
            -6.2710620462894440e-02 7.5367027521133423e-01</leafValues></_>
        <_>
          <internalNodes>
            0 -1 234 2.5597651074349415e-06</internalNodes>
          <leafValues>
            2.1204398572444916e-01 -2.2550724446773529e-01</leafValues></_>
        <_>
          <internalNodes>
            0 -1 447 5.3787959041073918e-04</internalNodes>
          <leafValues>
            -7.4556998908519745e-02 6.4046752452850342e-01</leafValues></_>
        <_>
          <internalNodes>
            0 -1 644 -1.3245270565676037e-05</internalNodes>
          <leafValues>
            -2.9808688163757324e-01 1.5584547817707062e-01</leafValues></_>
        <_>
          <internalNodes>
            0 -1 377 4.6044689952395856e-05</internalNodes>
          <leafValues>
            -1.6230840981006622e-01 3.0162501335144043e-01</leafValues></_>
        <_>
          <internalNodes>
            0 -1 174 1.4915146493876819e-05</internalNodes>
          <leafValues>
            1.8416267633438110e-01 -2.7297857403755188e-01</leafValues></_>
        <_>
          <internalNodes>
            0 -1 304 -6.2849624082446098e-03</internalNodes>
          <leafValues>
            2.6251757144927979e-01 -1.8009315431118011e-01</leafValues></_>
        <_>
          <internalNodes>
            0 -1 88 -2.9779721517115831e-03</internalNodes>
          <leafValues>
            2.1180145442485809e-01 -2.5819441676139832e-01</leafValues></_>
        <_>
          <internalNodes>
            0 -1 519 -1.1822525411844254e-02</internalNodes>
          <leafValues>
            4.4856512546539307e-01 -1.0915482044219971e-01</leafValues></_>
        <_>
          <internalNodes>
            0 -1 505 9.6298637799918652e-05</internalNodes>
          <leafValues>
            -1.1922962218523026e-01 3.7691047787666321e-01</leafValues></_>
        <_>
          <internalNodes>
            0 -1 170 -1.7803928349167109e-03</internalNodes>
          <leafValues>
            4.2430639266967773e-01 -1.0225380957126617e-01</leafValues></_>
        <_>
          <internalNodes>
            0 -1 571 -2.4131391546688974e-04</internalNodes>
          <leafValues>
            -5.2847123146057129e-01 9.5028579235076904e-02</leafValues></_>
        <_>
          <internalNodes>
            0 -1 85 8.8010623585432768e-05</internalNodes>
          <leafValues>
            1.3428817689418793e-01 -3.3657449483871460e-01</leafValues></_>
        <_>
          <internalNodes>
            0 -1 490 -9.5655295808683150e-06</internalNodes>
          <leafValues>
            -2.3408520221710205e-01 2.0849674940109253e-01</leafValues></_>
        <_>
          <internalNodes>
            0 -1 690 4.0980224730446935e-04</internalNodes>
          <leafValues>
            -1.0133139789104462e-01 4.3067765235900879e-01</leafValues></_>
        <_>
          <internalNodes>
            0 -1 397 6.3296500593423843e-03</internalNodes>
          <leafValues>
            -1.0325769335031509e-01 4.1787368059158325e-01</leafValues></_>
        <_>
          <internalNodes>
            0 -1 612 -1.1725366348400712e-03</internalNodes>
          <leafValues>
            3.6900320649147034e-01 -1.2370294332504272e-01</leafValues></_>
        <_>
          <internalNodes>
            0 -1 641 1.8064426258206367e-02</internalNodes>
          <leafValues>
            -6.2081951647996902e-02 6.7461496591567993e-01</leafValues></_></weakClassifiers></_>
    <!-- stage 14 -->
    <_>
      <maxWeakCount>46</maxWeakCount>
      <stageThreshold>-7.2585338354110718e-01</stageThreshold>
      <weakClassifiers>
        <_>
          <internalNodes>
            0 -1 271 3.1353583835880272e-06</internalNodes>
          <leafValues>
            6.6483515501022339e-01 2.4358974397182465e-01</leafValues></_>
        <_>
          <internalNodes>
            0 -1 542 -9.9047010735375807e-06</internalNodes>
          <leafValues>
            -2.1293176710605621e-01 2.8786042332649231e-01</leafValues></_>
        <_>
          <internalNodes>
            0 -1 31 1.4648921205662191e-04</internalNodes>
          <leafValues>
            -8.4124840795993805e-02 6.4179575443267822e-01</leafValues></_>
        <_>
          <internalNodes>
            0 -1 679 3.6254473961889744e-03</internalNodes>
          <leafValues>
            -1.2296696752309799e-01 5.8162230253219604e-01</leafValues></_>
        <_>
          <internalNodes>
            0 -1 353 -2.3272950784303248e-05</internalNodes>
          <leafValues>
            -3.0015960335731506e-01 1.9386737048625946e-01</leafValues></_>
        <_>
          <internalNodes>
            0 -1 213 2.8043203055858612e-02</internalNodes>
          <leafValues>
            -1.2315399199724197e-01 5.1071089506149292e-01</leafValues></_>
        <_>
          <internalNodes>
            0 -1 206 -1.1804079636931419e-02</internalNodes>
          <leafValues>
            3.7834084033966064e-01 -1.2351588159799576e-01</leafValues></_>
        <_>
          <internalNodes>
            0 -1 474 6.0271623078733683e-04</internalNodes>
          <leafValues>
            -7.2931095957756042e-02 6.5393090248107910e-01</leafValues></_>
        <_>
          <internalNodes>
            0 -1 119 1.4817355258855969e-04</internalNodes>
          <leafValues>
            2.1579204499721527e-01 -2.3354715108871460e-01</leafValues></_>
        <_>
          <internalNodes>
            0 -1 708 -8.1348256208002567e-04</internalNodes>
          <leafValues>
            -4.4732901453971863e-01 1.1491399258375168e-01</leafValues></_>
        <_>
          <internalNodes>
            0 -1 699 8.3136255852878094e-05</internalNodes>
          <leafValues>
            -9.9766209721565247e-02 5.0467133522033691e-01</leafValues></_>
        <_>
          <internalNodes>
            0 -1 276 -3.3354414626955986e-03</internalNodes>
          <leafValues>
            5.9461033344268799e-01 -8.2249224185943604e-02</leafValues></_>
        <_>
          <internalNodes>
            0 -1 114 -7.8821764327585697e-04</internalNodes>
          <leafValues>
            2.3413568735122681e-01 -1.9586373865604401e-01</leafValues></_>
        <_>
          <internalNodes>
            0 -1 101 3.7374552339315414e-03</internalNodes>
          <leafValues>
            -9.8881311714649200e-02 4.6706232428550720e-01</leafValues></_>
        <_>
          <internalNodes>
            0 -1 222 -8.7286788038909435e-04</internalNodes>
          <leafValues>
            2.6422041654586792e-01 -1.6878594458103180e-01</leafValues></_>
        <_>
          <internalNodes>
            0 -1 45 -2.9537891969084740e-03</internalNodes>
          <leafValues>
            2.6192650198936462e-01 -1.8042112886905670e-01</leafValues></_>
        <_>
          <internalNodes>
            0 -1 561 -3.3778655051719397e-05</internalNodes>
          <leafValues>
            -2.9614004492759705e-01 1.7617027461528778e-01</leafValues></_>
        <_>
          <internalNodes>
            0 -1 195 1.8123714253306389e-02</internalNodes>
          <leafValues>
            6.0825690627098083e-02 -8.0600428581237793e-01</leafValues></_>
        <_>
          <internalNodes>
            0 -1 717 7.9172174446284771e-04</internalNodes>
          <leafValues>
            8.8885277509689331e-02 -4.4792193174362183e-01</leafValues></_>
        <_>
          <internalNodes>
            0 -1 462 -5.4558697156608105e-03</internalNodes>
          <leafValues>
            -7.0102065801620483e-01 6.0516826808452606e-02</leafValues></_>
        <_>
          <internalNodes>
            0 -1 710 -5.2916479762643576e-04</internalNodes>
          <leafValues>
            4.2922273278236389e-01 -1.1904294788837433e-01</leafValues></_>
        <_>
          <internalNodes>
            0 -1 205 -3.4196542401332408e-05</internalNodes>
          <leafValues>
            -2.9063007235527039e-01 1.6243985295295715e-01</leafValues></_>
        <_>
          <internalNodes>
            0 -1 482 4.1879407945089042e-05</internalNodes>
          <leafValues>
            -1.2707479298114777e-01 3.7711849808692932e-01</leafValues></_>
        <_>
          <internalNodes>
            0 -1 365 5.7822093367576599e-04</internalNodes>
          <leafValues>
            8.9929088950157166e-02 -5.7263559103012085e-01</leafValues></_>
        <_>
          <internalNodes>
            0 -1 65 1.4670938253402710e-02</internalNodes>
          <leafValues>
            -9.5641508698463440e-02 5.1585102081298828e-01</leafValues></_>
        <_>
          <internalNodes>
            0 -1 669 9.0645935415523127e-06</internalNodes>
          <leafValues>
            1.8383282423019409e-01 -2.4913755059242249e-01</leafValues></_>
        <_>
          <internalNodes>
            0 -1 582 6.1569991521537304e-04</internalNodes>
          <leafValues>
            -8.4356844425201416e-02 5.5315601825714111e-01</leafValues></_>
        <_>
          <internalNodes>
            0 -1 634 -1.2643184745684266e-03</internalNodes>
          <leafValues>
            2.9232868552207947e-01 -1.4763762056827545e-01</leafValues></_>
        <_>
          <internalNodes>
            0 -1 258 -1.6159945726394653e-01</internalNodes>
          <leafValues>
            3.2009881734848022e-01 -1.3794028759002686e-01</leafValues></_>
        <_>
          <internalNodes>
            0 -1 553 -1.0946592083200812e-03</internalNodes>
          <leafValues>
            3.4903252124786377e-01 -1.4051948487758636e-01</leafValues></_>
        <_>
          <internalNodes>
            0 -1 560 7.8317206352949142e-03</internalNodes>
          <leafValues>
            -9.4892241060733795e-02 4.8233422636985779e-01</leafValues></_>
        <_>
          <internalNodes>
            0 -1 168 -9.8601754871197045e-05</internalNodes>
          <leafValues>
            -4.3806955218315125e-01 1.1649091541767120e-01</leafValues></_>
        <_>
          <internalNodes>
            0 -1 164 -5.9736747061833739e-04</internalNodes>
          <leafValues>
            2.5761902332305908e-01 -2.0131769776344299e-01</leafValues></_>
        <_>
          <internalNodes>
            0 -1 103 -8.1730968304327689e-06</internalNodes>
          <leafValues>
            -2.8166794776916504e-01 1.7145924270153046e-01</leafValues></_>
        <_>
          <internalNodes>
            0 -1 274 -6.9564487785100937e-04</internalNodes>
          <leafValues>
            8.6980819702148438e-01 -5.6733671575784683e-02</leafValues></_>
        <_>
          <internalNodes>
            0 -1 77 -2.8575776377692819e-04</internalNodes>
          <leafValues>
            7.2296875715255737e-01 -5.3846720606088638e-02</leafValues></_>
        <_>
          <internalNodes>
            0 -1 275 5.7814607862383127e-04</internalNodes>
          <leafValues>
            -5.6301541626453400e-02 7.1913182735443115e-01</leafValues></_>
        <_>
          <internalNodes>
            0 -1 391 -1.0622953595884610e-05</internalNodes>
          <leafValues>
            -3.4803387522697449e-01 1.4498992264270782e-01</leafValues></_>
        <_>
          <internalNodes>
            0 -1 254 -7.6119357254356146e-04</internalNodes>
          <leafValues>
            2.5535342097282410e-01 -1.9214710593223572e-01</leafValues></_>
        <_>
          <internalNodes>
            0 -1 399 6.6335051087662578e-05</internalNodes>
          <leafValues>
            -1.8554942309856415e-01 2.5868290662765503e-01</leafValues></_>
        <_>
          <internalNodes>
            0 -1 466 -5.4733594879508018e-05</internalNodes>
          <leafValues>
            -3.1309118866920471e-01 1.9524133205413818e-01</leafValues></_>
        <_>
          <internalNodes>
            0 -1 428 -1.2096312129870057e-03</internalNodes>
          <leafValues>
            -4.6201500296592712e-01 1.1591108143329620e-01</leafValues></_>
        <_>
          <internalNodes>
            0 -1 312 4.6190424473024905e-04</internalNodes>
          <leafValues>
            -6.3026584684848785e-02 8.6549687385559082e-01</leafValues></_>
        <_>
          <internalNodes>
